baseline/conv2d/kernel:0
(5, 5, 3, 6)
[[[[-9.39450413e-02  4.48520817e-02  1.39978275e-01 -5.79595640e-02
     1.80630490e-01 -3.17052692e-01]
   [-9.93837311e-05 -2.54438426e-02 -1.18276425e-01 -2.13308483e-02
     2.19765361e-02 -1.22920491e-01]
   [-1.55936450e-01  6.30853930e-04  1.14441879e-01  1.75383165e-01
     1.36994645e-01  7.73631111e-02]]

  [[-9.95072871e-02 -1.01508617e-01  2.77606472e-02 -4.82338816e-02
     1.29497498e-01 -1.37581378e-01]
   [-1.10676035e-01 -6.14646189e-02 -9.62140933e-02 -2.70164814e-02
    -6.58873841e-02 -2.00134337e-01]
   [ 1.04964778e-01  5.41671701e-02 -1.48101419e-01  2.16617197e-01
     7.65870810e-02 -1.91872805e-01]]

  [[-5.26842028e-02 -2.26143026e-03  1.78627506e-01 -3.23524177e-02
    -1.91295117e-01 -1.42644182e-01]
   [ 1.13177516e-01  1.36461794e-01 -1.51013896e-01  9.29881111e-02
     2.17442121e-02 -2.53103793e-01]
   [ 1.49186313e-01 -6.82656169e-02 -7.34702647e-02  8.57636258e-02
    -1.79770499e-01 -1.81822792e-01]]

  [[-4.09706049e-02 -2.50171348e-02 -2.25196481e-02 -1.93801701e-01
    -2.20231995e-01 -1.16504595e-01]
   [ 7.48286918e-02  1.56939521e-01 -7.81112760e-02  1.83730885e-01
     6.30230978e-02 -1.54678777e-01]
   [ 3.21493208e-01 -1.08679630e-01  7.75275305e-02  1.86085090e-01
    -1.06773123e-01 -1.33675396e-01]]

  [[-7.51822963e-02 -7.96525925e-02 -4.65968549e-02  8.68788548e-03
     7.49335140e-02 -1.96645573e-01]
   [ 8.06615204e-02  8.01857859e-02  5.69789223e-02 -1.62702706e-02
    -6.88618608e-03 -2.87288457e-01]
   [ 1.14558995e-01  1.03833126e-02  4.46006581e-02  2.32635453e-01
    -6.25229068e-03  1.12683743e-01]]]


 [[[-2.64269084e-01  2.75201499e-01  6.86560571e-02 -1.35120124e-01
    -4.76881536e-03 -1.93835631e-01]
   [-1.22452721e-01  7.54071400e-02  1.10085331e-01 -7.64157102e-02
    -1.70265496e-01  3.39918472e-02]
   [-4.82504489e-03  5.44050336e-02  1.96211085e-01  9.96772572e-02
    -1.27710938e-01  1.76969483e-01]]

  [[-9.88233462e-02  3.15370023e-01 -8.33474398e-02 -1.68120250e-01
     1.88852251e-01  3.79269235e-02]
   [-2.77197868e-01 -8.57182890e-02 -2.25739647e-02 -9.25574899e-02
    -1.44988275e-03  1.25273898e-01]
   [ 2.85022318e-01 -1.03632435e-02 -2.00121328e-01  6.38444647e-02
     1.90774217e-01  7.66723976e-02]]

  [[ 1.68466736e-02  2.22363725e-01 -1.65374666e-01 -7.92558864e-02
     4.01312374e-02 -5.03252931e-02]
   [-3.14870626e-02  9.01195630e-02 -1.63350806e-01 -9.66455787e-02
     2.07207769e-01 -7.19109923e-02]
   [ 4.18923348e-01  9.30219591e-02 -7.33284131e-02  2.19577670e-01
     1.18690059e-01  1.38133034e-01]]

  [[-1.43515646e-01  1.32259503e-01  1.39463335e-01 -1.69183210e-01
    -4.09264863e-02  1.10533923e-01]
   [ 8.90231878e-02  8.11078846e-02  5.24005480e-02 -1.22885711e-01
    -5.30168926e-03 -1.29719675e-01]
   [ 5.04272759e-01 -6.82626143e-02 -3.03183831e-02  2.61658639e-01
    -2.08209101e-02  6.19909316e-02]]

  [[ 8.71175826e-02  9.85702500e-02  1.10055422e-02 -1.79373130e-01
    -1.00162446e-01 -1.34680361e-01]
   [-4.68985923e-02 -6.46819919e-02  6.92402348e-02 -8.85667205e-02
     8.51512626e-02 -2.01080352e-01]
   [ 2.66222339e-02  2.54095756e-02  1.23319387e-01  1.75353870e-01
    -1.53061286e-01  1.13222286e-01]]]


 [[[ 4.61326092e-02  2.76428193e-01  1.99030146e-01 -2.34515294e-01
    -2.68272936e-01 -3.75201460e-04]
   [-4.22994606e-02 -1.51343450e-01  2.50641018e-01  1.46153525e-01
    -2.10457563e-01  6.39510974e-02]
   [-1.04436241e-01 -1.39638811e-01  1.92196369e-01  1.21313751e-01
    -2.70060360e-01  2.53491729e-01]]

  [[ 5.91141917e-03  1.92956597e-01 -2.27763578e-02 -1.78094596e-01
    -2.67370850e-01  1.64908975e-01]
   [ 3.34929973e-02 -2.74020374e-01 -2.73303837e-01  2.20454261e-01
    -1.94127709e-01  2.91944891e-01]
   [ 1.21023625e-01 -2.35127077e-01 -2.09142730e-01  7.05395415e-02
    -7.67569523e-03  2.07537577e-01]]

  [[ 1.08009249e-01  1.15407899e-01 -2.25111112e-01 -2.25306198e-01
     3.52956533e-01  1.31962404e-01]
   [-5.59633970e-02 -2.50703752e-01 -2.30949372e-01 -4.95422743e-02
     3.60445321e-01  2.37225369e-01]
   [ 2.31653214e-01  1.47827389e-02 -1.79407790e-01  1.08573921e-01
     2.30136029e-02 -1.54089108e-02]]

  [[ 1.13008104e-01 -1.79518163e-01  1.47854999e-01 -1.31343588e-01
     7.82280117e-02  1.42874092e-01]
   [-1.49652615e-01 -1.77886307e-01  7.00099170e-02  2.07583264e-01
     2.89520264e-01  1.01686954e-01]
   [ 2.32841238e-01 -9.15358216e-02  8.83492827e-02 -3.42180720e-03
     1.99454293e-01  4.82693575e-02]]

  [[ 1.75158709e-01 -1.53053045e-01 -1.49171604e-02 -1.94548413e-01
    -7.24508539e-02  4.39204760e-02]
   [-8.89552832e-02 -1.04754046e-01  1.52671382e-01 -9.73661896e-03
     1.06701195e-01  6.25360683e-02]
   [-1.57784820e-01  3.07213608e-02  5.01973480e-02  2.08566502e-01
     9.49475095e-02 -1.16993465e-01]]]


 [[[ 6.08622096e-02 -4.00308855e-02  1.76624030e-01 -5.16865477e-02
     1.00469157e-01 -6.04260378e-02]
   [ 2.79600266e-02 -6.93180710e-02  2.02038229e-01  1.52533174e-01
     8.12304765e-02 -1.16329649e-02]
   [ 2.81915218e-02  3.45506296e-02  1.61252990e-01 -2.44999938e-02
     1.60723686e-01 -2.06365474e-02]]

  [[ 7.84365907e-02 -1.52511811e-02 -1.23531558e-01 -2.88308889e-01
    -1.33634090e-01 -4.18830961e-02]
   [ 1.14555880e-01 -2.14475721e-01 -2.68386722e-01  2.55206414e-02
    -1.79197013e-01  9.84266307e-03]
   [ 6.00670790e-03 -5.74272908e-02 -2.64620423e-01  8.90321936e-03
    -6.53698519e-02 -8.88870955e-02]]

  [[ 2.05472007e-01 -2.33373523e-01 -1.55449480e-01 -1.50447145e-01
    -1.37957886e-01  1.31300628e-01]
   [ 1.69747118e-02 -1.16209053e-01 -1.54496983e-01 -7.96330124e-02
    -6.93122670e-02 -1.21872306e-01]
   [-1.68444946e-01  4.98435535e-02  2.24492457e-02  1.95154771e-01
    -1.42906785e-01  4.77788225e-02]]

  [[ 1.76281154e-01 -1.68651909e-01  6.44398257e-02 -8.85705873e-02
    -1.45589843e-01  1.62887990e-01]
   [-1.89445555e-01 -1.30188778e-01  1.09967604e-01  1.01257324e-01
     6.81609288e-02 -1.08287029e-01]
   [-1.14683643e-01  8.01151171e-02  1.15170933e-01  2.36573573e-02
    -1.37693271e-01  6.47886982e-03]]

  [[ 2.10619360e-01 -1.63140744e-02 -3.16132046e-02  6.55306652e-02
     1.90236866e-02 -3.92031856e-02]
   [-2.07006529e-01  6.98596165e-02  1.45780578e-01 -1.86462492e-01
     1.14215039e-01 -9.42295697e-03]
   [-2.23230690e-01  3.23911570e-02  2.30923407e-02  2.45284121e-02
    -1.25370547e-01  1.85837880e-01]]]


 [[[ 6.66439831e-02 -1.12029009e-01  6.98622614e-02  2.90896231e-03
     1.63181752e-01  5.90623617e-02]
   [ 6.59896284e-02 -4.82885018e-02 -7.87264407e-02  1.70663148e-01
     1.53857112e-01 -9.40782130e-02]
   [-8.82087946e-02  2.62008049e-03  1.89719081e-01  1.86379835e-01
     2.10365668e-01 -8.77149180e-02]]

  [[ 1.08816922e-01  8.25394616e-02 -1.12096094e-01 -1.01134174e-01
     2.01551139e-01  1.85909525e-01]
   [-3.24473903e-02 -1.05925381e-01 -2.03783616e-01 -1.06815912e-01
    -1.81448102e-01 -3.25801075e-02]
   [-1.06057581e-02  8.87816027e-02 -8.41488019e-02  1.17379501e-01
     1.86459208e-03  2.57051028e-02]]

  [[ 4.62063178e-02 -6.72371462e-02 -1.20746512e-02  3.52664888e-02
    -5.96298501e-02  2.56517008e-02]
   [-4.12017852e-02  7.67376572e-02  3.24576944e-02 -8.89155343e-02
    -1.73630834e-01  8.97767320e-02]
   [ 1.81731302e-02  2.74735391e-01 -5.67565821e-02 -1.45823687e-01
    -6.05263002e-02 -1.13966115e-01]]

  [[ 2.63988972e-02 -5.20572737e-02 -4.31796797e-02 -4.41476256e-02
     5.99783808e-02 -9.39071085e-03]
   [-5.87759614e-02  1.38746694e-01  7.99972042e-02 -7.14247003e-02
    -1.13646954e-01  1.13302216e-01]
   [-1.79127693e-01  9.02720615e-02 -1.20594283e-03 -1.27699673e-01
    -1.18156917e-01 -2.62504648e-02]]

  [[ 1.00515485e-01 -1.66489199e-01 -6.26223087e-02  7.60381110e-04
    -3.45381498e-02  8.02763700e-02]
   [ 4.82456684e-02  1.85213417e-01  1.07761450e-01 -1.72273621e-01
    -1.38213411e-02  1.50860325e-01]
   [-2.61577666e-01  1.95302278e-01  4.90550920e-02 -1.29447833e-01
     3.89074124e-02 -1.04546338e-01]]]]
baseline/conv2d/bias:0
(6,)
[-0.04532376  0.00807536  0.07892969 -0.00818215  0.08104453  0.02791154]
baseline/batch_normalization/gamma:0
(6,)
[0.5760984  0.86442894 1.0150092  0.47868288 0.65494174 0.6974151 ]
baseline/batch_normalization/beta:0
(6,)
[-0.26806304 -0.56392115 -0.4236997  -0.00811499 -0.2884125  -0.24096654]
baseline/dense/kernel:0
(1536, 128)
[[ 3.27720940e-02  4.88821836e-03  5.05611375e-02 -2.98522264e-01
  -4.00248878e-02  5.30347675e-02 -1.91050351e-01  3.15862298e-02
  -4.96537574e-02  2.24709604e-02 -7.22376853e-02  1.69139858e-02
  -2.15542875e-02 -6.46790117e-02  9.98333003e-03 -2.54421867e-02
   1.43652424e-01 -2.09477195e-03  7.17359856e-02 -8.75061844e-03
   9.17625576e-02  4.51689176e-02 -2.10427437e-02 -3.58363837e-02
  -6.56502023e-02 -2.10228525e-02 -1.76522493e-01  5.73702827e-02
  -9.13611613e-03 -7.35511035e-02 -5.48413217e-01  4.20558192e-02
   2.52934322e-02 -5.11993989e-02 -2.41961237e-02 -8.16735476e-02
   2.62589566e-02 -9.24009606e-02 -3.22759338e-02  3.53379808e-02
   3.89691629e-02 -6.79321289e-02  5.54750189e-02 -7.81871937e-03
   5.35693578e-02 -4.41089179e-03 -7.81981945e-02 -3.55735421e-02
   3.43392566e-02 -2.37835795e-02 -9.23510119e-02  1.01294845e-01
  -1.37083903e-02 -5.81850298e-02  1.12294853e-01  7.60745909e-03
  -3.67194295e-01 -4.81887087e-02  4.23087440e-02 -2.84184515e-02
  -2.55790204e-02 -6.18952289e-02 -1.81519222e-02 -1.09581426e-01
  -1.87860548e-01  1.94225088e-02  2.89007109e-02  2.56462134e-02
   5.81954010e-02  3.58965881e-02  4.11460474e-02 -5.83012886e-02
  -2.24205285e-01  5.21501787e-02  1.75380372e-02  2.16595307e-02
   4.10997756e-02 -9.22472104e-02  5.38396314e-02 -9.38479900e-02
  -3.31370793e-02 -2.68891715e-02 -8.75548199e-02 -5.64149246e-02
  -2.82693817e-03 -5.50448615e-03 -3.16931643e-02 -3.57026383e-02
  -4.86212112e-02  2.17544902e-02 -8.97720978e-02  1.38221785e-01
   1.31142244e-01 -1.15092145e-02 -3.66387442e-02 -3.88991311e-02
  -3.24018188e-02  5.36571704e-02 -5.00468127e-02 -2.58895587e-02
  -3.24158333e-02 -4.30264883e-02 -1.79112200e-02 -8.29485431e-02
  -2.48510659e-01  3.23034860e-02 -1.05095282e-01  1.73700944e-01
   8.00086558e-02 -5.98591454e-02  9.48432088e-03  5.73133379e-02
   1.11548446e-01 -3.67578901e-02 -1.45858172e-02  4.72971089e-02
  -1.32313399e-02 -1.54390469e-01  1.83627322e-01  4.25796304e-03
   3.43287401e-02 -1.81655183e-01  4.95712943e-02 -7.30242431e-02
   3.17896195e-02 -5.27508743e-02  2.30341200e-02  3.14674787e-02]
 [-9.82966740e-03  2.88085677e-02 -1.98595360e-01 -2.36737579e-01
  -8.53474289e-02  2.71874480e-02  4.24194112e-02  7.46749761e-03
   3.10372505e-02 -5.73228858e-02  3.24291401e-02  2.22377870e-02
  -4.71587069e-02  2.04532407e-02  8.32220241e-02 -2.93973833e-02
  -8.65005702e-02 -1.03187367e-01 -1.26260594e-01 -2.44295135e-01
  -7.64846476e-03 -7.55502656e-03 -3.44642103e-02 -4.28050607e-02
   4.62143160e-02  3.62071185e-03  3.19430083e-02  8.41167271e-02
  -1.41240224e-01  1.28056303e-01 -9.79963169e-02 -6.21791594e-02
   2.47319341e-02  4.34061699e-02 -3.08871139e-02 -2.36638620e-01
   4.28805239e-02 -1.06727086e-01  5.27287237e-02  3.00620273e-02
  -5.79537041e-02 -5.45968041e-02 -3.21632251e-02  1.59599017e-02
  -4.59399866e-03  2.67168935e-02 -1.09943062e-01 -1.52430713e-01
   5.96005190e-03 -6.20610788e-02 -4.64488752e-02  3.05668060e-02
   6.92743734e-02  3.13652121e-02 -2.04954877e-01 -9.22360495e-02
  -1.21609412e-01  5.87552674e-02 -6.60527647e-02  1.49665028e-02
   5.52825257e-02  8.32988396e-02 -4.32162285e-02  3.08720488e-02
   5.38521037e-02  1.19092958e-02 -1.59827061e-02 -6.67595118e-02
   2.83991918e-03 -2.68072523e-02  2.16864049e-02 -1.11675570e-02
   2.58819740e-02  5.77532724e-02  4.19509644e-03 -6.06786497e-02
   1.06982533e-02 -4.49936949e-02 -2.52353519e-01  1.93614662e-01
   3.50807942e-02  1.75154116e-02 -2.18081772e-02 -7.77499601e-02
  -5.65394908e-02 -8.87942761e-02  1.63110849e-02 -5.42073362e-02
  -1.49338152e-02  6.52893558e-02  5.22074513e-02  2.14562975e-02
  -1.02104843e-01  1.00579165e-01 -1.31057352e-01  2.45092940e-02
   3.01119243e-03 -3.09886545e-01 -9.63484049e-02 -5.79967573e-02
  -6.61030365e-03  2.20451858e-02  2.99629048e-02  7.03253001e-02
  -4.84724864e-02  1.21296765e-02 -8.52106884e-02  4.87157069e-02
  -1.39472291e-01 -1.19925337e-02 -1.43053606e-01  6.41940220e-04
  -5.55733740e-02 -9.91390422e-02 -1.20399669e-01  2.51821149e-02
   2.71709431e-02 -6.14248179e-02 -1.37761191e-01 -4.84623052e-02
   1.98278055e-02 -6.43377155e-02 -1.58220716e-02  3.89306098e-02
  -5.28898947e-02 -7.44266808e-02  1.52480274e-01 -1.53164547e-02]
 [-3.43076698e-02 -4.48258929e-02 -7.03002140e-02  1.62546098e-01
  -2.06326291e-01  5.44112362e-03 -7.77744278e-02 -6.79388270e-02
  -1.72400605e-02  5.73595811e-04 -6.39871210e-02 -2.25593187e-02
  -2.46881973e-02  1.41613171e-01  7.73724914e-02 -3.46639715e-02
  -5.55005856e-02  1.58249103e-02 -9.96106938e-02 -6.04130588e-02
  -1.30746692e-01 -4.28146273e-02  3.06577124e-02  4.39701695e-03
   1.09251849e-02 -5.41514643e-02  2.09779050e-02  3.76338116e-03
  -6.54146820e-02  9.50192437e-02  1.65181026e-01 -6.01451024e-02
  -7.58432746e-02 -5.20571619e-02 -3.34669724e-02  1.04948170e-01
  -4.32964042e-03  8.73081386e-02 -3.33483443e-02 -4.14085463e-02
   3.00087612e-02  2.84440648e-02 -2.01791495e-01 -8.38176161e-02
  -6.95907995e-02  9.51587558e-02 -2.76144315e-02  4.28835489e-02
   1.26378369e-02 -3.99570130e-02 -4.01170999e-02  2.65021212e-02
   3.08345612e-02  3.80044021e-02  1.41573116e-01  1.42895412e-02
  -4.23410162e-02 -1.13113716e-01 -4.45467792e-02  1.72142256e-02
   9.06117707e-02 -1.13142766e-02  9.66111049e-02 -2.72535216e-02
  -4.62183356e-02 -1.33145779e-01 -3.05821504e-02 -7.51252621e-02
   4.53206003e-02 -8.75975285e-03  1.00480404e-03  1.80842902e-03
   1.08833157e-01 -5.35756871e-02 -1.24476394e-02 -2.75131501e-02
  -1.00961141e-01 -4.16751914e-02  4.83382046e-02  1.29485384e-01
  -3.28995995e-02  4.93930541e-02 -5.21132909e-02  1.00516722e-01
   6.35564094e-03 -8.39553867e-03 -3.35496999e-02 -4.90292758e-02
  -1.33427801e-02 -4.64258902e-03 -3.95675413e-02 -1.92228183e-01
   2.56987177e-02 -1.14345022e-01  5.16470661e-03 -3.09295021e-02
  -3.53318751e-02  1.38448067e-02  8.29065070e-02 -7.06334412e-02
  -9.45032090e-02 -1.40775982e-02 -2.29957364e-02  1.37868393e-02
   1.16839640e-01  1.39670689e-02 -2.96710487e-02 -4.47007529e-02
   4.86728782e-03  4.21161577e-02 -1.62578806e-01  2.30465131e-03
   2.49281265e-02 -1.57236427e-01  8.82092416e-02 -2.73095537e-02
  -2.04338804e-02 -2.05394313e-01 -1.33804204e-02  5.05296700e-02
   8.54127202e-03 -2.25065604e-01 -2.06935126e-02 -8.23233798e-02
   8.16877782e-02  3.05228364e-02  1.34630352e-01 -4.76645716e-02]
 [ 2.65569668e-02  3.15985531e-02  2.01065436e-01  4.00738157e-02
  -1.42638847e-01  1.42100900e-02  1.44809052e-01 -3.01857851e-02
   2.34698988e-02 -1.60540082e-02  5.33620901e-02  1.77892055e-02
  -2.95687541e-02  6.67914450e-02  1.04894646e-01  2.67333277e-02
   1.79810189e-02  2.49939393e-02  2.54369020e-01  6.51694387e-02
  -6.78618699e-02 -1.67093370e-02 -1.91345125e-01 -1.27788093e-02
   1.92364454e-02 -8.35276172e-02  6.04773909e-02  2.36250944e-02
  -8.11927840e-02 -3.96323390e-02  2.75564611e-01 -3.07390280e-02
  -2.42456906e-02  8.95094033e-03 -8.43775421e-02  2.63950992e-02
  -6.42097741e-02  1.48224279e-01 -4.05168347e-03  3.89398821e-02
  -4.14580740e-02 -1.52903572e-02 -6.64089620e-02  2.85862125e-02
   5.45015931e-02 -1.45661235e-01  3.52790207e-02  2.21172452e-01
   5.96905686e-02 -2.08113156e-02 -3.68881822e-02  2.86868424e-03
  -3.08998138e-01  7.25761335e-03  5.60608283e-02 -2.97158152e-01
  -2.78160088e-02  9.74545330e-02  4.96359207e-02  5.06834462e-02
   4.82550524e-02  7.71256462e-02  1.50627002e-01 -2.25272819e-01
  -1.13690376e-01 -3.91133100e-01  2.20860932e-02 -8.44370481e-03
  -6.13249987e-02  3.32871750e-02  5.97155206e-02  3.89677286e-03
   2.24533733e-02 -2.74038970e-01  3.45527604e-02  5.76581024e-02
   1.26636252e-01 -1.42212100e-02 -4.62992340e-01  1.24361686e-01
   3.93029712e-02 -3.09696025e-03  5.83953634e-02  6.15166128e-02
  -5.88160269e-02  3.37476581e-02 -5.66931181e-02 -1.60923861e-02
   2.10043956e-02 -1.19604729e-01 -6.51372643e-03 -3.49984288e-01
  -5.29965341e-01  9.76130590e-02 -2.85023808e-01 -1.50251426e-02
  -1.96518134e-02 -2.29073316e-01  1.38943210e-01  5.34887202e-02
   1.22817047e-03 -8.55394900e-02 -3.19714397e-02 -5.66390045e-02
   1.04925603e-01 -3.60737927e-03 -3.79631901e-03 -3.36118877e-01
   8.37838128e-02 -6.95539713e-02  1.73745587e-01  3.13160568e-03
  -4.92153727e-02  2.63332278e-01  1.16422862e-01  5.04750237e-02
  -3.08383852e-02  8.92083049e-02 -6.47435546e-01 -2.25689150e-02
   4.41303737e-02  1.20306060e-01  1.61352549e-02  8.83052312e-03
  -1.89127147e-01  2.51885764e-02  6.01682300e-03 -4.30975519e-02]
 [-8.77103209e-02 -1.86693035e-02 -8.19349959e-02 -8.48171934e-02
   7.41186216e-02  6.11111848e-03 -9.80196521e-02 -6.42245123e-03
  -3.28173935e-02 -1.64692625e-02 -4.43637604e-03  2.97971778e-02
  -5.93752041e-02  2.25859191e-02  5.82701564e-02  3.76946591e-02
   7.66114071e-02 -8.31100792e-02  4.73156162e-02  1.51629135e-01
   7.97992200e-03 -9.39148888e-02  4.02300842e-02 -7.01708198e-02
  -5.59319034e-02 -5.29913493e-02  7.88322762e-02  1.00290127e-01
   1.14726424e-01  1.01763271e-01 -2.51559424e-03 -5.81979081e-02
   4.83288849e-03  1.34766577e-02  4.04571630e-02  2.05631573e-02
   1.02479476e-02  6.72611371e-02  4.12478112e-02  1.11193862e-02
   3.58040370e-02 -3.76815647e-02 -1.29831824e-02  8.09248835e-02
  -3.81645337e-02  4.45472337e-02 -3.33990692e-03 -2.20551286e-02
   3.01430537e-03 -5.43370508e-02 -2.70092040e-02  5.77565655e-02
   5.31076342e-02 -6.48191944e-02  7.32626244e-02 -2.21215617e-02
  -5.72294593e-02  3.19134668e-02 -8.04985464e-02 -2.18829364e-02
  -5.21729514e-02 -7.78662711e-02  1.34768868e-02 -1.14731789e-02
  -9.24123898e-02  8.49490461e-05 -5.25882747e-03 -2.96266340e-02
   8.06315690e-02 -5.48152998e-02 -2.52736080e-02 -5.07647768e-02
   1.11271717e-01  7.54532218e-02  1.49733247e-02  9.61454585e-03
  -4.98974696e-02 -5.78145571e-02  6.69089183e-02 -8.10661837e-02
  -6.97798282e-02  3.23867425e-02 -1.27837956e-01 -1.88625064e-02
  -5.58390021e-02 -1.06034249e-01 -5.48351817e-02 -2.64956579e-02
  -4.33326140e-02  4.55686525e-02  4.71642008e-03 -3.04683624e-03
  -1.16487863e-02 -2.20292769e-02  4.99751046e-02 -6.24054633e-02
  -1.12219773e-01  7.92512596e-02  7.39746820e-03 -6.94413781e-02
   2.95998435e-03 -7.16077676e-03 -4.98782918e-02  4.76829037e-02
  -8.75029154e-03  5.76101430e-02  2.59592328e-02  2.46749930e-02
  -6.09807111e-02 -4.59564589e-02 -1.22914322e-01 -2.50731818e-02
  -2.42878217e-02 -7.13510513e-02 -8.74801874e-02  5.07681025e-03
   4.54562064e-03  1.80484038e-02  2.03305874e-02 -5.04729114e-02
   1.83605701e-02 -1.15710728e-01 -3.97548676e-02  2.09549312e-02
   1.07127741e-01 -8.29705149e-02  2.30370667e-02 -6.57161549e-02]
 [-8.61809328e-02 -7.06292391e-02 -1.95817053e-01 -9.47439075e-02
  -2.19945721e-02 -3.39604691e-02 -4.68309969e-02  4.45847400e-05
  -2.72331983e-02  7.11284159e-03 -9.18127149e-02  7.01939687e-03
   9.15558916e-03  1.30923808e-01 -2.38149799e-02 -6.29089177e-02
  -1.52079463e-02  1.57068390e-02  8.36062729e-02 -4.13404731e-03
   9.31121334e-02 -1.52325416e-02  3.11350245e-02  2.81374250e-02
   8.02859198e-03 -1.95503198e-02  9.24907401e-02 -6.71656802e-02
   1.16201006e-01  4.16975617e-02  3.49313021e-02 -5.35461195e-02
  -2.80581638e-02  2.13294546e-03  3.73941474e-02  3.64111215e-02
  -6.73531229e-03  1.35249402e-02 -1.01896254e-02  4.71832082e-02
  -3.88653912e-02 -4.03444096e-02 -1.00405745e-01  2.22357977e-02
   4.27458920e-02 -1.29243557e-03 -9.19403434e-02  1.49941426e-02
  -1.34197678e-02  2.00461429e-02 -6.69692010e-02 -3.77009111e-03
   7.77623281e-02 -9.86959320e-03  4.66251932e-02  1.11849857e-02
  -3.04322857e-02 -5.17223366e-02 -5.04367836e-02 -4.22098190e-02
  -2.82141808e-02 -2.00384818e-02 -5.64707117e-03 -2.12984867e-02
   3.66221070e-02  1.85512956e-02  7.17275776e-03 -2.20041201e-02
  -6.09238707e-02 -7.55854473e-02 -3.96286584e-02  3.20196860e-02
   2.62283925e-02  4.41017672e-02 -2.93371957e-02  1.82841290e-02
  -4.55890149e-02  1.23128667e-03 -6.54580351e-03 -1.15170404e-01
   1.62778031e-02  1.01439908e-01 -8.01175162e-02 -3.92386243e-02
   3.62937227e-02 -9.55514535e-02 -2.27557383e-02 -3.31242234e-02
   2.94724293e-02  3.91978472e-02 -8.23899731e-03 -2.21667830e-02
   4.64636423e-02  1.39683187e-02 -2.30188388e-02  2.40710769e-02
  -9.59780440e-02 -1.48839792e-02  7.02330098e-02 -2.58726031e-01
  -1.18720233e-01 -5.64909279e-02 -6.94992170e-02 -8.23499188e-02
   6.69236407e-02 -6.00943677e-02  3.82430106e-02 -1.49699301e-02
  -2.06705299e-03 -4.45461553e-03 -8.66315421e-03 -6.01154193e-02
  -4.64340895e-02 -1.65345907e-01  1.18816113e-02 -1.86877195e-02
  -1.25044317e-03  4.55784015e-02  2.75627840e-02 -6.93662465e-02
   8.16027913e-03 -4.14019115e-02  1.33214425e-02 -1.13843493e-01
   9.63115990e-02  1.38382604e-02  1.22538963e-02  9.81724728e-03]
 [-8.24752524e-02 -2.59236470e-02 -4.44194190e-02 -1.25240594e-01
  -1.65212020e-01  3.14319097e-02 -4.70555089e-02  2.98072863e-02
   3.97658236e-02  6.96960464e-03 -9.67612714e-02 -8.16602111e-02
   3.22469994e-02 -1.73623428e-01 -7.00464323e-02  2.60906313e-02
   4.81693894e-02 -1.35938497e-02  3.79473343e-02 -6.18326031e-02
  -7.40830973e-02 -4.33261953e-02 -7.39005730e-02 -5.97680062e-02
   4.65201139e-02 -4.70125154e-02 -1.09502509e-01  1.76108349e-02
  -9.28291827e-02 -9.52208564e-02 -4.24464911e-01 -4.15131710e-02
  -1.74963139e-02 -6.71569351e-03  2.79359091e-02 -5.70506044e-02
   7.71667361e-02 -1.03838444e-01 -3.85531522e-02  6.97578117e-03
   4.95784134e-02 -5.63386828e-02  3.94482128e-02 -1.95309684e-01
   5.82790794e-03 -2.61770189e-02 -1.81435756e-02  5.07698618e-02
  -9.76254977e-03 -7.61140371e-03  3.02378107e-02  1.62802972e-02
  -1.81448489e-01 -5.88861154e-03  1.19316883e-01  2.24444196e-01
  -2.34069034e-01 -1.06856585e-01 -6.38385788e-02 -1.07267462e-01
  -5.81696294e-02 -2.02990785e-01 -1.55216046e-02 -4.09606919e-02
  -1.50107816e-01  8.37357491e-02 -3.01405396e-02 -1.73326153e-02
   1.86090246e-01 -3.08913887e-02 -5.53098731e-02 -2.26473641e-02
  -1.97366297e-01  1.02675147e-01 -1.52629986e-02 -5.40931104e-03
  -2.70726122e-02 -6.89110830e-02 -6.75589293e-02 -7.75663331e-02
   1.21581636e-03 -1.21281698e-01  2.46544778e-02 -1.73269697e-02
   1.04187324e-03 -2.26746313e-02  5.82862496e-02 -3.42731620e-03
  -4.86997105e-02 -1.52121246e-01  3.01914215e-02  1.49428815e-01
   1.75903365e-01 -8.87033790e-02  2.06885114e-02 -5.25707752e-02
   3.12886015e-02  1.09987646e-01 -1.16021121e-02 -1.06271304e-01
  -1.36213033e-02 -1.31972376e-02  1.04223741e-02  1.72107993e-03
  -3.47551823e-01  2.45128553e-02 -8.84971619e-02 -1.94964167e-02
   1.28215298e-01  3.70070599e-02 -8.56787991e-03  5.19569442e-02
   1.02077208e-01 -6.34791777e-02  2.05384269e-01 -3.10536777e-03
  -6.90748319e-02 -1.99341625e-01  9.48150828e-02 -2.98256837e-02
  -6.82547921e-03 -1.07589848e-01 -5.93872275e-04  2.63468716e-02
   7.20054954e-02 -1.51507005e-01 -5.30902222e-02 -3.21284346e-02]
 [ 2.15731245e-02  4.74773496e-02 -1.00616507e-01 -1.00189961e-01
  -5.11738807e-02 -5.83714545e-02  5.02439328e-02 -3.00015919e-02
  -2.18359870e-03 -3.83454822e-02  1.00694718e-02  2.16171760e-02
   7.46697234e-03 -9.26901177e-02 -1.73213519e-02 -1.40435807e-02
   1.46269292e-01 -2.85536125e-02  1.20866001e-02  6.86339736e-02
   4.20518033e-02 -3.60405482e-02  2.22928897e-02 -3.07793804e-02
   1.63383130e-02 -5.22001907e-02  7.65694529e-02  6.42127246e-02
  -2.65934318e-02  3.59894224e-02  6.61001503e-02  5.27696684e-02
   1.10990778e-02 -4.11693081e-02 -5.71087003e-02  2.22322419e-02
  -1.95071232e-02  9.31922793e-02  5.12477644e-02 -2.57554408e-02
  -4.31984141e-02 -7.35685835e-03  3.14571448e-02  6.73388317e-02
  -4.46434952e-02 -1.01764128e-01 -1.01887807e-02 -1.36148930e-01
   1.70264449e-02 -3.84903848e-02  1.87277459e-02  1.57971289e-02
   7.21746963e-03 -5.55695854e-02 -3.07368245e-02  3.99903357e-02
  -2.80009229e-02  8.45633149e-02  7.22925551e-03  6.64732931e-03
  -2.09257007e-01 -8.07058662e-02 -1.60741229e-02  6.47700578e-03
  -9.81404707e-02 -5.25695235e-02 -5.63548468e-02 -3.14962268e-02
   1.01044632e-01 -2.29489338e-02 -2.79076509e-02  4.24163714e-02
   2.91426275e-02 -8.13177153e-02  2.21003518e-02  8.49945843e-03
  -2.67408732e-02 -3.69765572e-02 -5.42500503e-02  2.26242580e-02
   2.02203430e-02  2.08525322e-02  4.70443023e-03 -5.81319779e-02
  -5.78078553e-02  3.33314971e-03  7.44723156e-03 -5.39191514e-02
   3.81585844e-02  5.93080446e-02 -4.50773723e-03  1.32269785e-01
   1.02929836e-02 -7.31356740e-02 -1.73480678e-02  4.30951342e-02
   4.14926820e-02 -1.04964010e-01  1.11883454e-01  1.53442251e-03
   4.82248031e-02  1.56543627e-02  3.37706804e-02  7.81515911e-02
   2.25221619e-01  1.02756610e-02 -1.18382156e-01 -3.46647128e-02
  -1.87998824e-02 -9.07551646e-02  9.08990353e-02 -4.03421000e-02
   5.03509082e-02 -8.61133076e-03 -6.35391176e-02  3.23431753e-02
  -1.01296753e-01  6.96915761e-02 -3.38314548e-02 -3.83739173e-02
   1.44481203e-02 -5.99202141e-02 -6.34908229e-02  1.72069296e-02
  -1.87763888e-02  5.21515030e-03  1.83846518e-01 -4.80497964e-02]
 [-1.12184115e-01 -9.01590735e-02 -3.03752366e-02  1.60715148e-01
  -7.53206462e-02  1.03120357e-02 -4.42492291e-02 -5.75280041e-02
   2.22783424e-02 -5.96701652e-02 -1.03040516e-01  6.55152574e-02
  -5.48694991e-02 -2.77101714e-02  1.97119266e-02 -1.15277534e-02
   1.21265486e-01 -4.67254557e-02  7.36484826e-02  7.26649314e-02
  -8.74527171e-02 -2.45251809e-03  3.21436487e-02 -4.15096618e-02
  -7.27011859e-02  1.49014667e-02  3.01244110e-02  2.75869705e-02
   2.46563982e-02 -1.52804458e-03  8.10740069e-02  4.84097116e-02
   4.32140799e-03  2.61910222e-02  4.40957956e-02 -5.81261590e-02
  -6.17854670e-02  2.43094191e-02  4.25110944e-02  2.78482903e-02
  -5.45724444e-02 -5.09307273e-02  1.24941356e-01  5.64245768e-02
  -7.46700391e-02  1.41695023e-01  1.72292247e-01 -8.98172334e-02
   1.82343572e-02 -4.12102491e-02 -1.92276519e-02  1.35988101e-01
  -6.38973191e-02 -1.67068150e-02  1.40549829e-02  7.60584027e-02
  -9.32934403e-04  2.19585430e-02 -3.85931954e-02 -1.54327741e-02
   3.13483551e-02  1.66840293e-02  1.00312650e-01  9.87139568e-02
  -1.32702915e-02 -2.38353312e-01 -3.21600176e-02 -2.78546661e-03
  -9.00348723e-02  4.95351991e-03 -1.79344360e-02 -8.97051860e-03
   1.96237192e-02 -4.04427826e-01  4.64475751e-02 -1.53564559e-02
   7.16139227e-02 -3.09516788e-02 -2.91174680e-01 -4.57098633e-02
  -4.21571657e-02  5.90186715e-02  4.63484153e-02 -7.08860680e-02
  -3.36962752e-03 -1.45953372e-02  3.61569151e-02 -5.76940514e-02
  -3.46640535e-02 -9.45540518e-02  4.11542766e-02  5.07103354e-02
   4.17661034e-02 -9.65788364e-02  2.71731466e-02  4.17086706e-02
  -1.65681783e-02 -5.19265160e-02 -2.08318289e-02  2.94418558e-02
  -5.80484793e-02 -7.75080770e-02 -3.01383510e-02 -5.38165979e-02
   1.10369034e-01 -3.18873338e-02  4.63144667e-03  1.23635530e-01
   6.08662097e-03  1.97489820e-02  3.17533500e-02 -8.23126882e-02
   3.96211483e-02 -4.03251536e-02  1.48389533e-01  8.44880007e-03
  -3.22922878e-02  8.66298378e-02  3.31641961e-04 -7.82149192e-03
  -5.27974665e-02  1.40522331e-01 -7.23088682e-02  5.66097647e-02
  -4.58744951e-02 -4.84503210e-02  2.39371229e-02  3.79763618e-02]
 [ 7.82798529e-02 -2.00570878e-02  8.75868648e-02 -1.12681504e-04
   5.95997199e-02 -9.22902208e-03  1.45067811e-01  3.15862410e-02
   2.32777111e-02 -4.49745320e-02 -6.05347008e-02 -3.23752351e-02
  -1.12469969e-02 -1.61792580e-02  2.88584325e-02  1.49810007e-02
   2.36489568e-02 -7.53836781e-02  1.59001663e-01 -1.15767561e-01
  -2.88444646e-02 -5.85407913e-02 -2.00377461e-02 -1.27520470e-03
  -2.08666939e-02 -4.56833839e-02  8.36469233e-02  9.43772569e-02
  -1.46339864e-01  3.71607915e-02 -4.54708226e-02  2.30314583e-02
  -5.66072129e-02  9.35342163e-03 -4.31159791e-03 -1.03123672e-01
   3.50984186e-02  6.41182512e-02  8.28761328e-03 -7.63273016e-02
  -1.64701957e-02  2.78110038e-02 -5.54095134e-02 -1.90907732e-01
  -5.27364127e-02  1.26981661e-01  1.74191669e-02  5.66943884e-02
   9.22115967e-02  6.22907281e-03  5.08821607e-02  1.95058491e-02
  -1.51654318e-01  2.83660516e-02 -2.43253738e-01  6.04129732e-02
  -8.57729316e-02 -5.18586440e-03 -1.26757054e-03 -5.71073368e-02
  -8.72731395e-03  9.62963924e-02  2.12190956e-01  8.10254714e-05
   6.06303103e-03  2.49304576e-03  2.79074553e-02 -1.49407387e-02
  -9.93774459e-02  1.32489195e-02  4.36421633e-02 -9.50666610e-03
  -7.65906423e-02 -8.67260024e-02  3.17662880e-02  3.67828384e-02
   9.59995165e-02  3.66204195e-02 -3.04017782e-01  3.24990630e-01
   1.44994259e-02 -3.44866067e-02  1.54513836e-01  6.85861111e-02
  -1.19226864e-02 -4.92401086e-02  3.61131839e-02 -4.13431153e-02
   4.80215475e-02  1.98653881e-02 -6.43271580e-02  6.27077892e-02
  -2.38957703e-01  9.05341730e-02 -1.35513067e-01 -5.23720793e-02
   4.36633267e-02 -1.59874186e-02  1.41723715e-02  6.68422803e-02
   3.64529267e-02  1.38195800e-02 -2.08875574e-02 -5.65927625e-02
   1.21740319e-01  2.82126591e-02 -8.68057460e-02 -1.37967840e-01
   3.61834466e-02 -5.37009761e-02  1.74707752e-02 -2.25468837e-02
  -5.16259782e-02  1.31292269e-01 -3.48315537e-02  4.97222356e-02
  -4.02679443e-02  7.53264353e-02 -1.63547620e-01 -4.55356389e-03
   1.99452247e-02  8.24270621e-02  3.74011770e-02  5.82905428e-04
  -4.14848998e-02 -1.73468411e-01  1.15831923e-02 -4.94627878e-02]
 [-3.99893383e-04  3.49674188e-02 -1.91851929e-01  1.46198735e-01
   7.74041191e-03 -1.48328552e-02 -1.73802659e-01 -4.16796543e-02
  -2.86286827e-02 -2.44899336e-02 -1.16354182e-01 -2.59262230e-02
  -2.90668719e-02  1.14955351e-01  2.07702294e-02  9.44006629e-03
   6.76991865e-02  1.60471391e-05  1.35543495e-01 -1.74573302e-01
  -8.57176855e-02 -2.80162673e-02  1.76612899e-01 -4.30012681e-02
  -2.31899545e-02 -8.51082429e-02 -5.41722700e-02 -1.21999923e-02
   1.18289649e-01 -1.37010962e-01  1.98317487e-02  2.85992697e-02
  -2.30195373e-02  3.75540182e-03 -1.63432248e-02  9.19642076e-02
   4.79462147e-02  9.64822918e-02  3.67643125e-02 -4.68524471e-02
   3.09367068e-02 -5.35786599e-02  7.93503448e-02 -8.64329934e-02
   2.76288986e-02  6.84191436e-02 -1.02888852e-01 -1.54678570e-03
   8.03466290e-02 -2.76637152e-02 -8.92990455e-02  1.00525364e-01
   2.70969584e-03  3.63864228e-02 -3.91954295e-02  6.90016299e-02
   6.17038608e-02  3.61325182e-02 -3.42472531e-02 -1.12037428e-01
   2.83974949e-02  8.51478428e-02  8.16184208e-02  1.07691750e-01
  -1.56454816e-01 -6.29395694e-02 -1.35882841e-02  1.80551056e-02
   9.67013314e-02  2.67364569e-02 -6.02237098e-02  3.60603146e-02
   7.92590231e-02 -9.81846899e-02 -1.33508341e-02 -3.84237152e-03
   2.01751571e-02  9.71705373e-03 -2.51046661e-02 -1.14496544e-01
  -1.18450802e-02  2.04329398e-02 -5.24308681e-02  2.85974834e-02
   1.33041386e-02  5.45375720e-02  5.33733591e-02  1.76203102e-02
  -2.29751468e-02  4.09703283e-03  1.94854848e-02  9.11253225e-03
  -6.08657598e-02 -1.47170305e-01 -2.56491117e-02 -4.42541279e-02
  -8.83198678e-02  2.20409364e-01 -8.86217728e-02 -1.65232092e-01
  -1.47442939e-02 -5.06252572e-02 -2.90623810e-02  9.05417874e-02
   1.46398572e-02 -6.83976114e-02  9.86007303e-02 -5.50362058e-02
   2.29972586e-01  3.26252244e-02 -9.02045891e-02  9.53827240e-03
  -1.75296795e-02 -4.07918394e-02  1.41199991e-01  4.96149361e-02
   1.98413767e-02  1.50239393e-01 -1.71116918e-01 -4.26947400e-02
  -4.10341611e-03 -4.90862280e-02  2.71617156e-02 -3.35040800e-02
  -8.81094262e-02  5.22400886e-02  2.29529440e-01 -2.72314250e-02]
 [-8.17216188e-02 -6.42060637e-02 -1.90263316e-01  2.63183657e-02
  -2.61625927e-02 -1.70979965e-02 -1.13452345e-01  3.03085372e-02
  -6.31752685e-02  1.50668947e-02  3.12003046e-02  2.29053162e-02
  -3.92876901e-02  7.55458605e-04  7.12554017e-03  1.06548127e-02
  -8.58479589e-02  5.36773056e-02  1.81448972e-03  9.43279713e-02
   2.41369903e-02  3.13802771e-02 -5.37541732e-02  2.00348236e-02
   3.07640620e-02 -1.33220889e-02 -5.30711412e-02 -1.17954150e-01
   5.51959164e-02 -1.23337368e-02  2.72217616e-02 -7.62717277e-02
  -3.96932997e-02 -1.04402110e-01  3.87129895e-02  8.87150243e-02
  -2.54267771e-02  1.98047180e-02 -1.52164428e-02  3.53197679e-02
   2.89017744e-02 -5.87405823e-03  3.35368561e-04 -4.32493761e-02
  -4.21873815e-02  4.36026417e-02 -3.65233831e-02  3.32069919e-02
   1.63967591e-02 -6.73858300e-02 -4.68681306e-02  3.42870653e-02
   8.22341368e-02 -3.61952260e-02  3.63763887e-03  7.27105048e-03
  -7.00451760e-03  9.39775165e-03 -5.55943586e-02 -1.42646283e-01
   1.68243106e-02  2.62662619e-02 -1.23974560e-02 -1.72697473e-02
  -3.24507095e-02  1.63145214e-02 -4.89663146e-02 -2.48641036e-02
  -2.39062700e-02  2.75607333e-02 -4.02871482e-02 -3.72277051e-02
   7.22902119e-02  7.00046718e-02 -6.08848827e-03 -9.27903038e-03
  -1.27554953e-01  2.37162113e-02  3.32457758e-02  1.77676026e-02
   2.77205240e-02  4.10546549e-02 -4.19429736e-03 -2.86447853e-02
   2.94754393e-02 -8.63693282e-02  3.43462229e-02 -1.78554077e-02
   1.18895546e-02 -1.19853038e-02 -3.09551563e-02  4.04879190e-02
   3.62930372e-02  2.29786057e-02 -3.73277850e-02 -4.18856889e-02
  -1.13330819e-01  1.21060023e-02  4.40338962e-02 -2.67821345e-02
  -4.27099802e-02 -5.71438111e-02  2.00395496e-03 -8.09855387e-02
   2.37062890e-02 -3.63865979e-02 -3.19100693e-02  1.04492977e-02
   5.75282685e-02  4.44285795e-02 -1.95316002e-02 -4.02807482e-02
  -3.78295593e-02 -1.54417917e-01 -4.64185737e-02 -1.45023763e-02
   3.34862098e-02 -1.70485117e-02  2.70445645e-02  5.07590808e-02
   1.16480039e-02  3.13937999e-02 -1.65179800e-02 -1.26102399e-02
   5.63995726e-02 -5.99415451e-02 -4.41010296e-03 -4.59585115e-02]
 [-3.05818804e-02 -5.80551848e-02  6.77510202e-02 -2.43864805e-01
  -1.90491930e-01  1.98521670e-02 -9.20000523e-02 -3.19371902e-04
   4.99370955e-02 -6.72275722e-02  8.45895056e-03 -3.64446943e-03
  -8.88003781e-03  1.90326143e-02 -7.52945468e-02 -5.87508790e-02
   3.18599641e-02 -6.34769071e-03 -1.01009205e-01  6.75082393e-03
  -9.35674235e-02 -8.82955175e-03 -6.51924461e-02 -5.07477149e-02
  -3.00328601e-02 -5.25894063e-03 -8.80274251e-02 -2.85453368e-02
  -2.03892648e-01 -2.20005214e-01 -2.93011665e-01  1.19376807e-02
   4.11164090e-02 -1.09709464e-01 -5.83629049e-02 -9.33499262e-02
  -1.60812717e-02 -1.36501491e-01  1.68702693e-03 -3.71586382e-02
   4.50185463e-02 -1.18025532e-02  6.28273487e-02 -1.65554747e-01
   5.45375841e-03 -3.12720165e-02  3.61851938e-02 -1.05152316e-01
   1.50764249e-02  4.47672755e-02 -2.44854088e-03 -2.40146369e-02
  -1.96857169e-01 -1.98088270e-02  1.06649473e-01  1.07807577e-01
  -1.83870032e-01 -2.93399077e-02 -2.34238524e-02 -5.67728616e-02
  -7.40055693e-03 -5.41157126e-02 -8.27149227e-02 -8.28280821e-02
  -2.49282360e-01  8.12514275e-02 -1.97654758e-02 -2.93470751e-02
   1.15775689e-01 -6.26524389e-02 -4.38481942e-02 -2.58416161e-02
  -1.29131367e-02  1.22872004e-02 -2.07362548e-02 -2.60072984e-02
   1.17524909e-02 -8.68993476e-02 -1.23237662e-01 -7.07540512e-02
   5.71494689e-03 -5.20912893e-02 -9.50966438e-04  4.08957014e-03
   1.27601596e-02 -7.06517994e-02 -1.63120329e-02 -1.26955090e-02
  -7.10817203e-02 -2.02627406e-01  3.81409712e-02  1.11217201e-01
   1.69849589e-01 -7.46391341e-02 -3.26215960e-02 -3.39259617e-02
  -4.35616486e-02  2.54860474e-03 -2.36156508e-02 -5.53910211e-02
  -6.04047906e-03  3.71576250e-02 -4.26531918e-02  2.98745953e-03
  -1.72479197e-01 -9.01675317e-03 -1.32113099e-02  6.02309555e-02
   1.30513951e-01  9.12151486e-02 -4.31933776e-02 -3.71088162e-02
   1.30706325e-01 -3.65569703e-02  6.76444545e-02  2.79191397e-02
  -1.92208085e-02 -1.55112699e-01  3.37379500e-02 -1.16080180e-01
   1.60412956e-02 -1.65592864e-01  5.15150614e-02 -3.32223251e-02
  -9.05522611e-03 -1.55838877e-01 -1.06997937e-02  3.40138078e-02]
 [-2.15794276e-02  7.07968976e-03 -9.03590769e-02  1.14631601e-01
   2.17886083e-02 -5.51930517e-02  9.86866951e-02  9.51672159e-03
  -1.88197829e-02 -3.30586955e-02 -1.19878665e-01  1.12887368e-01
   8.30692053e-03  2.87352111e-02 -1.46883816e-01 -2.94114407e-02
   1.07979454e-01  3.32647376e-02  2.87903100e-02  1.44465929e-02
  -1.31100714e-01 -2.83045080e-02 -1.41962662e-01 -3.02570667e-02
   1.16566559e-02  9.51909833e-03  2.89738327e-02  9.61217955e-02
   3.94276865e-02  5.75821474e-02 -3.15537155e-02  1.51639609e-02
   5.30041158e-02 -6.55965284e-02 -5.52160628e-02  2.31685728e-01
   8.79771356e-03  1.38774931e-01  3.49697210e-02 -5.50413691e-03
   9.28627979e-03  3.89439194e-03 -8.48589465e-02 -1.55952737e-01
  -8.29702020e-02 -1.60601452e-01 -9.85105708e-03  3.78643945e-02
   7.58095607e-02 -1.75317135e-02 -1.59563497e-02 -1.20627424e-02
   2.26502754e-02 -6.23178631e-02 -7.07236752e-02 -6.74346611e-02
  -9.49576274e-02 -1.04100198e-01 -5.88667952e-02  4.49650222e-03
  -1.06436223e-01 -3.57918367e-02 -2.47456748e-02 -6.02359734e-02
  -1.21103115e-01 -3.31185618e-03  2.43143961e-02  3.39779146e-02
   6.36414737e-02  2.42734118e-03  7.66159743e-02 -1.41266128e-02
  -6.96635246e-02 -7.49341846e-02  4.40107360e-02  1.05614206e-02
  -1.98822632e-01  7.84984697e-03 -2.33295485e-01  3.54065411e-02
   3.40738520e-02  9.26177055e-02 -5.91611490e-03 -9.77304354e-02
   2.52932832e-02 -2.20078062e-02 -6.89652562e-03 -5.59810214e-02
   1.49843572e-02 -5.26571125e-02 -3.38100046e-02  3.45466547e-02
   5.89412302e-02  8.81585106e-02  4.14928012e-02  4.84404806e-03
  -1.31816762e-02 -2.75851190e-02  1.87117815e-01 -1.92207769e-02
   1.10306870e-02 -3.31843384e-02 -5.30079789e-02  1.05932772e-01
   1.36931226e-01 -2.10462362e-02 -1.26029581e-01 -1.32205144e-01
   5.37060164e-02  2.12215800e-02  6.23187609e-02  5.29534519e-02
   2.93580331e-02 -1.77892821e-03 -6.43505156e-02  4.45887558e-02
  -3.30750868e-02  2.30707958e-01 -1.05897121e-01 -2.89280806e-02
   2.82674562e-02 -1.32655203e-01  1.17688347e-02  3.70143391e-02
  -1.54132694e-01  5.91379441e-02  8.34226683e-02 -5.30805402e-02]
 [-4.89867404e-02 -1.17130198e-01  4.42673918e-04  2.61390388e-01
  -2.19591871e-01  1.97234470e-02 -2.25343645e-01  2.01319717e-02
   3.26172262e-02 -8.53151025e-04 -4.10634913e-02 -1.18084541e-02
   9.03479476e-03  1.07229892e-02  5.02184294e-02  3.91974784e-02
   4.77111638e-02 -7.88044557e-03  7.76107237e-02  1.12224348e-01
  -8.45639408e-02  5.90378381e-02  1.27885744e-01 -6.40706271e-02
  -6.04047962e-02  3.95456515e-03 -1.85351372e-02  1.12827033e-01
   8.30856115e-02 -7.32238218e-02  1.61337465e-01  3.16919424e-02
  -5.55838272e-02 -7.48501569e-02  6.18206710e-03  3.76284271e-02
  -4.32879776e-02  1.58282042e-01  3.51777785e-02  6.43032370e-03
   1.74570400e-02 -5.14756404e-02 -2.37600077e-02  2.59221569e-02
  -2.44109929e-02  1.66096315e-01  4.92037088e-03  8.32037330e-02
   5.98763712e-02  3.49737220e-02 -1.37737701e-02 -2.60445941e-02
   4.95348088e-02  1.33036999e-02  1.23136662e-01  6.66387752e-02
  -9.39803291e-03 -1.14167584e-02  5.27616851e-02 -6.85554668e-02
   1.42195791e-01 -2.32902527e-01 -1.59545273e-01  8.56501907e-02
  -1.80463691e-03 -1.75518721e-01  2.61980705e-02 -1.22837545e-02
  -5.72857894e-02 -8.10754136e-06  4.74061631e-02 -6.86322898e-02
  -1.56026958e-02 -5.00330515e-02  1.16678001e-02 -2.09359322e-02
  -4.76745516e-02 -5.15942462e-02 -9.72900316e-02 -1.70663595e-01
  -2.70888451e-02 -9.28470269e-02 -8.02732632e-02  6.24660812e-02
  -6.63840026e-02  1.50240969e-03 -5.12033403e-02 -4.64188354e-03
   2.07961760e-02 -6.32351115e-02 -7.72024319e-02  5.10632172e-02
  -9.36995074e-02 -6.27495870e-02  1.70790851e-02 -4.58019078e-02
  -4.85349074e-03  1.17975185e-02 -7.53753707e-02  8.40900764e-02
   3.75566538e-03  2.79692728e-02 -5.27182482e-02 -9.61229503e-02
   1.79755807e-01  2.59800497e-02 -4.67776433e-02 -1.58393726e-01
   3.47281322e-02 -6.99822679e-02  8.95261765e-02  2.45500002e-02
   2.52988897e-02 -1.87736023e-02  9.45314094e-02  2.82414630e-02
   4.21731845e-02 -3.47303115e-02 -2.16199845e-01 -8.17155465e-02
  -2.50415243e-02  1.56848282e-01 -5.76028079e-02 -8.13392326e-02
  -8.13938230e-02  5.47732301e-02  5.13362996e-02  1.70040578e-02]
 [ 2.06024721e-02 -9.40838605e-02  1.66970342e-01 -1.35431319e-01
  -2.36106049e-02 -6.27394347e-03 -2.36819554e-02  2.31651170e-03
   3.83888111e-02 -7.18723983e-02 -8.20198506e-02 -5.04654050e-02
  -4.38942164e-02  6.89800680e-02 -3.15860845e-02  5.81063703e-03
  -8.72500762e-02 -3.85818146e-02 -1.87420435e-02 -1.12459317e-01
   2.70614363e-02 -2.83326767e-02 -6.30466267e-02  2.22456679e-02
  -5.40491045e-02 -1.12348916e-02  1.61608662e-02  2.45013423e-02
  -8.07920694e-02  5.31657971e-02  1.30107120e-01  2.20736023e-02
  -4.87924255e-02  9.87397134e-03  7.48409657e-03 -1.51632920e-01
  -3.60291339e-02  8.43107402e-02  6.42404146e-03  5.33762155e-03
   1.64489076e-02 -4.30794843e-02 -8.53806082e-03 -1.84653312e-01
  -1.90268736e-02  7.78581202e-02 -6.29096180e-02  5.40106110e-02
   1.82712525e-01  3.19674462e-02  5.97526059e-02 -1.87386461e-02
  -1.00559033e-01  2.11759992e-02 -2.32980579e-01  1.28072217e-01
  -9.95418131e-02 -1.45206908e-02  2.16394179e-02 -1.19711282e-02
  -1.20582040e-02  1.61032018e-03  1.18847698e-01 -1.64192259e-01
   2.07810923e-02 -9.07489564e-03 -3.17383483e-02  2.17794944e-02
  -1.26119867e-01  7.57939508e-03  5.30831926e-02 -3.91131602e-02
  -1.89591721e-02 -3.15755196e-02 -4.56540585e-02  2.40280908e-02
  -1.25504304e-02 -5.06680012e-02 -3.01912218e-01  2.49076799e-01
  -3.21069956e-02 -7.40893707e-02  4.57999436e-03 -1.11314701e-02
  -9.07520354e-02  3.70718949e-02 -1.49850827e-02  2.72284448e-02
  -4.19653989e-02 -5.89173399e-02  1.34616429e-02  9.45513994e-02
  -1.29800171e-01  8.93209502e-02 -2.12565005e-01 -6.88250884e-02
   2.44536623e-03  1.43114338e-02  2.23580927e-01 -9.22141522e-02
   1.76542085e-02 -3.33912224e-02 -2.23013647e-02 -4.61046249e-02
   1.06041297e-01  4.81866114e-03 -1.02268048e-01 -1.83228523e-01
  -3.51747461e-02 -1.45190656e-01  2.12803837e-02  3.16454843e-02
  -6.97986484e-02  1.53177053e-01 -3.22470106e-02  2.03133952e-02
  -7.31787905e-02 -9.74138267e-03 -1.60366699e-01  2.71011586e-03
   3.66161242e-02  1.20837577e-01  8.76606163e-03 -5.41119613e-02
   1.40422536e-02 -6.58916309e-02 -2.37205923e-02 -5.82459830e-02]
 [-5.81249744e-02 -3.27395797e-02  2.30139159e-02  1.98583767e-01
   7.88078457e-02  3.48127857e-02 -8.93666297e-02  7.75395287e-03
  -5.38320690e-02 -3.84684689e-02 -2.51661427e-02 -1.55852232e-02
  -7.65671581e-02 -2.59670783e-02 -1.17661141e-01 -4.03861851e-02
   9.36416611e-02  9.69178528e-02  1.57327484e-02 -2.83631265e-01
  -3.98392752e-02  9.10018850e-03  8.83431360e-03 -1.36920856e-02
  -5.74186258e-02  2.48585809e-02 -3.45615670e-02  5.76191023e-02
   4.27310392e-02 -1.68950543e-01 -3.99906710e-02 -2.67747268e-02
  -3.98294255e-03  2.17576493e-02  3.34142894e-02 -1.16452612e-02
  -8.38327110e-02 -3.56310643e-02  2.09319312e-02  4.20069136e-02
  -3.97242308e-02 -5.74422404e-02 -8.56363848e-02 -1.26135230e-01
  -3.21073905e-02  1.21689901e-01 -5.95178865e-02  2.17163805e-02
   2.06107840e-01 -7.71531463e-02 -2.25171912e-02 -9.35594514e-02
  -2.19338819e-01 -8.38144403e-03 -9.19097885e-02  6.75466135e-02
   8.80455449e-02  7.65976831e-02  4.47578356e-02 -1.65695194e-02
  -7.62038305e-02  2.56579697e-01 -8.38770047e-02 -6.55769706e-02
  -3.22752781e-02  1.42015712e-02  4.64704223e-02  6.11426448e-03
   1.10755049e-01 -6.04960583e-02  3.02367285e-02  4.54869270e-02
   8.57890993e-02 -1.01153934e-02  8.85147043e-03 -3.02324966e-02
  -2.19532922e-02 -1.02999909e-02 -8.45150203e-02  1.12277843e-01
   3.73820812e-02 -7.90713131e-02  3.90630029e-02  3.00872903e-02
  -3.04518342e-02 -5.74724413e-02 -2.67446367e-03  3.50846648e-02
  -6.42354265e-02 -5.52783050e-02 -1.24833537e-02  2.95381006e-02
   6.56414628e-02  2.79832240e-02  1.53316945e-01  4.68340740e-02
   2.24088952e-02 -5.89489527e-02 -1.52130090e-02 -1.96561038e-01
  -6.32528588e-02 -6.85389638e-02 -1.70374606e-02  6.43497929e-02
   2.77021304e-02 -5.47142252e-02 -9.86550003e-02  1.52439885e-02
   1.81106851e-01 -2.13157073e-01  3.71118784e-02  2.81873345e-03
  -7.48317316e-02 -8.86977986e-02 -4.71531935e-02 -4.97520566e-02
   5.62212728e-02  4.29954007e-02  1.64307252e-01  5.51304072e-02
  -9.93471146e-02 -5.64072095e-02 -1.95934949e-03 -8.78716633e-02
   1.04700569e-02  9.24947634e-02 -1.32451328e-02  3.76347601e-02]
 [-1.00769214e-01 -8.42904001e-02 -9.16821957e-02 -1.97868049e-02
  -2.13006455e-02  4.95428778e-02 -1.05980165e-01  4.24728803e-02
   2.29456238e-02 -8.34517088e-03 -4.97288555e-02 -4.34000455e-02
  -6.24509826e-02 -1.31946370e-01  1.38177834e-02 -6.39641061e-02
  -5.20017035e-02 -1.43770762e-02  7.27162417e-03 -4.31478210e-03
   5.79276830e-02 -6.65813088e-02 -3.61048840e-02 -3.34489942e-02
  -4.96951677e-03 -3.39044593e-02 -3.54752727e-02 -2.27046087e-02
   2.25124322e-02  4.59181843e-03  1.36009892e-02 -1.60466675e-02
  -2.76092794e-02 -2.94085015e-02 -8.63507241e-02  2.36856770e-02
   2.06163675e-02  7.39045963e-02 -1.91331729e-02 -2.85479650e-02
  -4.16470692e-02 -3.58081907e-02 -1.00538447e-01  4.58693393e-02
   4.07500826e-02 -3.12103312e-02 -1.78690299e-01 -2.95897555e-02
  -2.16961205e-02  8.61277059e-03 -4.62380610e-02  2.13586092e-02
   4.77880463e-02 -3.82212251e-02  8.46194010e-03 -1.06491130e-02
   1.22726923e-02 -1.46401851e-02 -6.52881265e-02 -6.99104816e-02
  -3.90574932e-02  1.50333224e-02 -5.50679117e-02  1.23638278e-02
   1.82369333e-02 -7.43911881e-03  1.58647951e-02 -1.11486511e-02
   4.72623743e-02 -8.99363961e-03 -4.96059423e-03 -2.21482255e-02
   8.78008679e-02  2.50078049e-02 -6.84727356e-02  6.85988516e-02
  -3.52437757e-02  2.36345455e-02  3.85453589e-02 -6.85179383e-02
  -5.55389449e-02 -2.45310180e-02 -7.83300921e-02  3.91335823e-02
  -2.21143551e-02 -2.10213158e-02 -8.93320981e-03  2.34753750e-02
  -9.43969656e-03  3.46296392e-02 -3.82845104e-02 -2.01385729e-02
   5.59482090e-02  7.07702115e-02  4.71055508e-02 -7.18774553e-03
  -4.08065505e-02 -3.30320634e-02  1.82380304e-02 -6.30557835e-02
  -6.22461066e-02  6.06232695e-03 -7.25261346e-02  2.41598804e-02
  -1.12841530e-02 -1.21115809e-04 -6.19299933e-02  8.17400590e-02
  -3.72675322e-02  3.15144025e-02 -2.77909804e-02 -6.58900244e-03
  -4.33317572e-02 -8.39013532e-02 -3.64891514e-02 -5.08910008e-02
   1.44900130e-02 -2.50537656e-02 -1.56652741e-02 -5.41520678e-02
  -4.40289713e-02  1.35022355e-02  3.72869335e-02 -5.88050894e-02
   4.74647321e-02  9.47240461e-03  4.96029891e-02 -5.41626252e-02]
 [-7.43610859e-02 -7.06545115e-02 -4.57997434e-02 -2.16644317e-01
  -8.23087096e-02 -7.18001872e-02  1.32679539e-02  2.91481111e-02
   4.03895453e-02 -3.66776250e-02  1.37673570e-02  1.23128556e-02
   4.42710593e-02 -8.17640871e-03 -1.07772224e-01  4.46116589e-02
   1.43136885e-02  9.75456163e-02 -5.82622960e-02  6.73082694e-02
  -4.54709157e-02 -3.37581746e-02 -1.13312162e-01  3.05114500e-02
   5.16452780e-03 -4.88139503e-03 -1.81294113e-01  9.66938213e-03
  -1.98255777e-01 -2.32801557e-01 -2.81634688e-01 -4.33578566e-02
  -3.62472869e-02 -1.27841681e-02  3.71943624e-03 -8.64177756e-03
  -5.26441857e-02 -5.12721390e-02  2.41381954e-02  1.01089718e-04
   2.23305412e-02 -3.23151499e-02  8.92180502e-02 -1.00840755e-01
   4.43557240e-02  1.11861471e-02  4.09735134e-03 -7.63847232e-02
  -1.34552315e-01 -4.75350805e-02  1.48554333e-02  5.39464224e-03
  -3.05334236e-02  5.47222719e-02  8.91104862e-02  1.85130030e-01
  -3.18894945e-02 -7.18394443e-02 -1.19492328e-02 -5.10315597e-02
  -8.98194313e-03 -4.75593172e-02  3.81611995e-02 -6.17279336e-02
  -8.25580359e-02 -6.08665384e-02  5.80545701e-02 -9.61817428e-03
   3.93655784e-02 -1.81260873e-02 -4.15389761e-02 -3.49182338e-02
  -6.34934828e-02  3.51437442e-02  4.43164781e-02 -5.78402914e-02
  -2.61386465e-02 -3.26308422e-02 -4.32314426e-02 -3.55172306e-02
  -5.58083542e-02 -4.00556028e-02  5.45544513e-02  6.74195029e-03
  -5.57542481e-02  1.34226559e-02  1.42819034e-02  2.43003443e-02
   1.12243006e-02 -1.35855019e-01  6.30704919e-03  3.89429405e-02
   4.84670559e-03 -3.23826633e-02  6.95540803e-03 -1.74619686e-02
  -3.82080069e-03  7.84859657e-02  5.80645539e-02  3.37743834e-02
  -4.30840114e-03  3.57424766e-02 -3.41127589e-02 -2.26105172e-02
  -2.48576850e-01  1.51761137e-02 -6.39232993e-02 -5.71708754e-03
   3.20149632e-03  4.14956026e-02 -6.73171505e-02 -3.39176059e-02
   7.98866451e-02 -1.13734801e-03  1.65948160e-02  3.12828943e-02
  -3.72094139e-02 -2.66713232e-01 -3.79381515e-02 -6.51911721e-02
  -7.65000954e-02 -6.59368467e-03  6.27863482e-02 -1.10298181e-02
   9.32248235e-02 -9.43556055e-02 -2.27047071e-01  4.51567248e-02]
 [ 5.48664257e-02 -1.44296186e-02  4.20201942e-02  8.05735588e-02
  -1.49765071e-02  8.49260483e-03  1.01405203e-01  6.46995194e-03
  -9.20218304e-02 -3.03984024e-02 -1.01878926e-01  1.06227808e-01
  -1.33859767e-02 -2.24638265e-03 -3.81211825e-02 -2.28968468e-02
  -5.63707799e-02  2.37247883e-03  7.24997371e-02 -1.63483858e-01
   4.29905616e-02 -3.67320725e-03  1.39629757e-02  3.25965509e-03
   2.12647561e-02 -6.51839655e-03  8.83576181e-03  7.72080198e-02
  -2.29759701e-03 -3.62373851e-02 -8.32725838e-02  3.76983993e-02
   3.91722172e-02 -5.47289476e-02  3.18073556e-02  1.45499691e-01
   1.70330312e-02  5.24362735e-02  5.87034672e-02  3.77898738e-02
  -3.49596031e-02 -2.52493937e-02 -3.48436497e-02 -1.38409361e-01
  -2.42009033e-02  1.31193213e-02 -6.30794317e-02  1.03770487e-01
  -3.82348001e-02 -5.26788421e-02 -1.49480011e-02  2.61482038e-02
  -6.40567169e-02 -3.15961102e-03 -9.97130722e-02 -2.38668658e-02
  -8.88547152e-02 -1.80203151e-02 -4.47252132e-02 -5.39743006e-02
  -1.03137523e-01  4.41282522e-03 -1.28433317e-01  9.12052114e-03
  -7.02397451e-02 -6.37458265e-02  3.01040951e-02 -1.49330087e-02
   7.96421058e-03 -5.81541173e-02 -4.68073785e-02 -4.69747521e-02
  -2.10156795e-02 -2.87437111e-01  1.97711736e-02 -4.02167849e-02
   3.90445837e-03  3.35670449e-02 -2.16199622e-01 -1.90370291e-01
  -1.74630359e-02  2.17582714e-02  1.22919776e-01  6.95711896e-02
   5.15313223e-02  1.22752404e-02  2.86158044e-02  2.92542074e-02
  -2.09992751e-02  6.72698990e-02  3.66881117e-02 -1.78062767e-01
   6.44479841e-02  6.05325289e-02  1.19969165e-02  4.37507443e-02
   8.29853583e-03  8.08086023e-02  2.25780949e-01 -7.25385025e-02
  -9.41861495e-02 -2.40597054e-02  2.10357029e-02  4.78354916e-02
   4.50707972e-02 -2.35234462e-02 -1.40436977e-01 -1.22686863e-01
   3.81987728e-02 -2.37918030e-02 -9.40264687e-02  1.23950886e-02
   3.45507972e-02 -5.35504594e-02  2.44994182e-02 -5.46048880e-02
  -2.73259524e-02  1.56173915e-01  8.25068075e-03 -3.66436467e-02
   1.57345105e-02  1.40440194e-02 -6.04132153e-02 -8.25280026e-02
  -1.73226476e-01 -2.64414791e-02  1.18988872e-01  3.57985683e-02]
 [ 1.38278734e-02 -3.34929451e-02 -7.42856413e-02  1.43271074e-01
  -8.96741599e-02 -6.57864064e-02 -3.82555783e-01 -4.08238471e-02
   3.38522829e-02 -2.00401563e-02  2.98619643e-03  3.88000393e-03
  -3.35550159e-02 -3.56959775e-02  6.02932870e-02  5.90204541e-03
  -1.81895092e-01  3.47116366e-02 -6.37470037e-02 -1.37557313e-01
   8.01076740e-02  6.56532170e-03  1.43086791e-01  3.35358977e-02
   2.30415650e-02  2.49430835e-02 -4.01108153e-02 -1.60658453e-02
  -2.36953422e-02 -1.85883358e-01  1.30154401e-01  4.80371602e-02
  -6.06103465e-02  4.16371375e-02 -4.18628147e-03  1.48151234e-01
  -1.59881283e-02  1.17795065e-01 -4.66799800e-04  5.91025781e-03
   4.05445769e-02  5.23055010e-02 -7.64715597e-02 -9.80621129e-02
   1.71821825e-02  4.44162302e-02 -2.45815441e-02  2.71169860e-02
  -5.26100807e-02  3.00985239e-02  2.10240181e-03  1.30046799e-04
  -7.19274282e-02 -1.82978772e-02 -4.18347819e-03 -1.79030206e-02
  -1.10245347e-01 -6.40511438e-02 -1.88353769e-02 -6.13546781e-02
  -9.31000337e-02 -2.81744421e-01 -5.93430512e-02  5.74479587e-02
   1.99767128e-02 -1.38525441e-01 -7.35294307e-03 -6.35518506e-02
  -1.23830527e-01  3.40198763e-02 -5.28144501e-02  1.83007885e-02
   9.55486000e-02 -6.08635917e-02 -5.29304147e-02  8.04976001e-03
   8.31731707e-02 -2.43465006e-02 -1.38086528e-01  5.42788766e-02
  -2.21530385e-02 -1.98867902e-01 -1.04749180e-01  4.34297360e-02
  -3.27300169e-02 -8.02291408e-02 -4.57242951e-02 -4.62056622e-02
   5.07960543e-02 -4.92262356e-02 -6.97807148e-02  6.18932843e-02
  -3.84772979e-02 -8.90526995e-02 -1.21380903e-01 -3.20110656e-02
  -6.17156066e-02 -1.45912357e-02 -1.65805459e-01 -2.47150380e-02
  -3.56927700e-03 -4.60961275e-02 -1.76620446e-02 -8.52385629e-03
   1.27461582e-01  3.56391929e-02 -9.18654073e-03  2.66892072e-02
   2.45863330e-02  1.30024191e-03  5.22951931e-02 -2.84436140e-02
  -6.44165203e-02  5.42995408e-02  1.36371374e-01 -5.41655459e-02
  -1.56765785e-02  2.29636449e-02 -2.02802390e-01  4.85892519e-02
  -5.25432313e-03  1.47978887e-01 -6.35780469e-02  8.73930380e-02
   1.02952041e-01 -1.08078003e-01  5.98561391e-02 -4.36326489e-02]
 [-2.09377930e-02 -7.49536827e-02  1.56725496e-01 -1.43464610e-01
   6.07267246e-02 -5.02878316e-02  2.30071340e-02 -4.13386635e-02
   6.26952499e-02  1.83975995e-02  3.83136570e-02 -2.88191233e-02
  -5.00690565e-02 -3.33673172e-02  2.97102500e-02 -6.47421181e-02
  -8.97151157e-02 -8.72427002e-02  9.62863269e-04 -1.64298609e-01
  -5.26569076e-02 -3.19408774e-02 -6.17443323e-02 -5.46369329e-02
  -3.16308029e-02 -5.84799945e-02 -1.08280979e-01  7.61062726e-02
  -5.16669301e-04  1.98888313e-02  3.37128669e-01 -2.40152627e-02
   1.74847171e-02  6.98810965e-02  1.45415291e-02  2.58464999e-02
   5.60573414e-02  1.27098814e-01 -8.30464289e-02  1.87049434e-02
  -1.86861660e-02 -5.28202467e-02 -8.41846690e-02 -4.98500317e-02
  -4.66890633e-02 -6.74742041e-03 -4.75732572e-02  3.32022049e-02
  -1.54825542e-02 -4.31057811e-02  2.69845352e-02  3.72695900e-03
  -1.35067105e-01 -7.76732042e-02 -1.85170099e-01  8.55539069e-02
  -7.28213936e-02 -6.85429648e-02 -3.03998664e-02 -2.18317285e-02
  -1.26760304e-02 -4.64234687e-02  1.51892170e-01 -3.16646062e-02
  -6.95066601e-02 -5.41337952e-02 -2.98873638e-03 -7.34005272e-02
  -1.26021028e-01 -4.43410426e-02  3.49000916e-02  3.46474946e-02
   6.42770082e-02 -4.51623797e-02 -5.27463965e-02  1.59062576e-02
   1.29975453e-01  4.10373285e-02 -3.64517778e-01  2.30452895e-01
   6.90535456e-03 -1.19370148e-01  4.48769554e-02 -4.37577255e-02
  -2.77612712e-02 -7.01413304e-02  6.28908873e-02 -1.68704353e-02
  -1.25201875e-02  2.27868240e-02  8.98081288e-02  1.05171293e-01
  -3.35628659e-01  3.96054611e-02 -2.46878043e-01  4.11144778e-04
   3.11988667e-02 -5.70433587e-02  1.47259802e-01 -5.32577001e-02
  -1.28079671e-03  1.23781124e-02 -5.43629518e-03 -8.17501843e-02
   1.74619690e-01 -2.28427686e-02 -4.18016426e-02 -2.67078429e-01
  -5.33286445e-02  3.78940627e-02  2.80443933e-02 -7.59665370e-02
  -1.15838416e-01  1.15426086e-01  3.45482230e-02  3.23991179e-02
  -4.58719917e-02 -3.12803052e-02 -1.90869555e-01 -4.44159172e-02
   2.20337510e-02  2.15804547e-01 -1.27796875e-02 -3.28270234e-02
  -1.16857477e-01 -9.87444520e-02 -5.20916423e-04  2.85110064e-02]
 [-8.69020373e-02 -8.26098844e-02 -1.12801746e-01 -5.99550866e-02
   3.99023704e-02  4.72935736e-02 -3.32122803e-01  4.12142798e-02
   3.95721346e-02 -9.39904824e-02 -3.47807333e-02  8.33040997e-02
  -5.17404974e-02  2.53200009e-02 -3.88808176e-02 -4.30388749e-02
   1.39387444e-01  1.12309910e-01  1.61492154e-01 -1.77902028e-01
  -8.18060488e-02 -1.62909236e-02  5.17180562e-02 -2.63331831e-02
   1.15243606e-02  4.56821173e-02 -1.68725297e-01  4.68337424e-02
  -5.45856282e-02 -8.70169923e-02  6.84982166e-03  4.22608778e-02
   5.05584925e-02 -4.13709171e-02  2.06596386e-02  1.03289466e-02
  -7.93417022e-02 -2.36965921e-02  4.95898724e-03  3.83616462e-02
  -2.41673496e-02 -3.08019575e-02  2.47680508e-02 -1.81126446e-01
   7.90499430e-03 -1.29734099e-01  1.14452257e-03  4.01976369e-02
   1.28577471e-01  2.51423079e-03 -2.52572745e-02  1.36419594e-01
  -1.66569367e-01 -2.68310439e-02 -1.19974248e-01  1.40932463e-02
  -2.49634814e-02 -1.14402529e-02 -6.47534207e-02 -7.50959665e-02
   6.00131489e-02  4.94613545e-04 -7.73605108e-02 -4.07952466e-04
   7.09369371e-04 -1.53287396e-01  8.46506562e-03 -3.59682329e-02
   5.48142754e-02 -4.18977672e-03  1.46829272e-02 -3.49944569e-02
  -7.34689012e-02 -1.87626451e-01 -6.66207075e-02 -7.79688507e-02
   2.65402962e-02 -2.01521553e-02 -4.37587313e-02 -1.72349751e-01
   4.48739603e-02  2.38501318e-02 -3.41612077e-03  1.26600653e-01
   3.69377807e-02  5.84520511e-02 -2.35306434e-02 -3.04225162e-02
  -6.84248284e-02  2.67169207e-01  6.15700446e-02  5.09531274e-02
   9.70005840e-02 -6.54611588e-02  4.62794937e-02  2.63574868e-02
   3.54691893e-02  2.79785693e-02 -1.96466483e-02 -4.38378155e-02
   2.15183273e-02 -3.18295844e-02  1.22929877e-03  1.32936463e-01
  -2.56739650e-02 -1.84922833e-02 -6.87095523e-02 -7.04133138e-02
  -4.55110297e-02 -1.55913085e-01  1.22126639e-01 -1.60554051e-02
   8.96055810e-03 -5.75706512e-02 -4.83074337e-02 -4.22895402e-02
   1.37393177e-02 -7.21743330e-02 -3.81570496e-02  4.26458567e-02
  -1.26427161e-02  8.65260884e-02 -2.16143560e-02 -1.05005351e-03
   1.24375574e-01 -8.99109840e-02 -5.86989000e-02 -6.29843958e-03]
 [-8.79326661e-04 -2.65168771e-02 -1.85916841e-01 -2.91223619e-02
  -1.45875290e-03  1.91773437e-02 -2.26636473e-02 -3.09496820e-02
  -1.55079914e-02 -2.50984300e-02 -5.26750088e-02  2.00655907e-02
   2.39264071e-02  1.10717453e-02 -2.63493229e-03 -2.60326150e-03
  -3.74564119e-02 -9.97382309e-03 -3.49662900e-02 -4.35020262e-03
   5.19915624e-03  2.11374387e-02  1.05856350e-02  4.35110256e-02
  -6.90656155e-02 -8.20114613e-02 -2.57386267e-02 -9.86126615e-05
   1.17069408e-01  9.50089470e-03  6.11935649e-03 -6.04615174e-02
  -8.59997794e-03  9.99977812e-04 -1.19770784e-02  6.84983879e-02
   9.20984149e-03  6.61889613e-02 -5.21602929e-02 -1.83641240e-02
   3.68701629e-02 -5.77766774e-03 -6.15650117e-02  3.19132321e-02
   1.22106541e-02  1.34667065e-02 -2.61746459e-02  5.12323827e-02
  -9.32990108e-04 -6.97572008e-02 -3.43849994e-02  1.98191646e-02
   3.14252675e-02 -1.92239229e-03  3.35939564e-02 -5.92174269e-02
   1.64968316e-02  1.43276807e-02 -2.02223752e-02 -5.58804199e-02
   2.64653526e-02 -2.49545332e-02 -1.88774224e-02 -4.19867933e-02
   9.33677424e-04 -6.97945198e-03 -3.74240503e-02 -4.91592623e-02
  -1.34848617e-02 -2.93395706e-02  1.47481533e-02 -6.93301484e-02
   7.31435940e-02  3.69751193e-02  1.50296697e-02  3.03811412e-02
  -9.03917383e-03  1.42438337e-02  5.16593754e-02  2.37277187e-02
   3.19353975e-02 -2.47687660e-03 -1.01784006e-01 -2.30762418e-02
  -3.45412306e-02 -3.79723012e-02  1.70082077e-02  2.49020718e-02
  -5.79881705e-02  2.29219459e-02 -4.49587964e-02  2.11398825e-02
   2.06903531e-03  1.17188897e-02 -1.18328668e-02  4.76488769e-02
  -3.96061689e-02 -6.36670440e-02  2.38168053e-02 -1.21023111e-01
  -6.77278116e-02 -8.54533911e-02 -4.28749360e-02 -2.41203588e-02
  -4.97252792e-02 -1.10556362e-02  3.53069343e-02  8.19212347e-02
   3.03249508e-02  6.86652586e-02 -4.34053922e-03 -3.03178243e-02
  -4.56437804e-02 -1.14372104e-01 -5.60798757e-02  4.40772949e-03
  -1.95513200e-03 -3.85349058e-02  1.49677917e-02 -9.46447160e-03
   3.54867019e-02 -1.31317964e-02 -5.68497181e-02 -7.01308772e-02
   6.47661611e-02  5.52862287e-02  2.19396711e-03 -1.35457506e-02]
 [ 3.37180607e-02 -9.21239331e-03  5.96158346e-03 -3.34111154e-01
   1.79238487e-02 -3.38434875e-02 -1.11835636e-01 -2.68115941e-02
  -3.59310806e-02 -7.81270415e-02 -1.95605494e-02 -1.08014777e-01
  -1.81803703e-02 -6.07846752e-02 -1.59707174e-01 -6.13660291e-02
  -1.05852261e-01  1.23633988e-01 -1.17772073e-01  8.71336535e-02
  -1.56882793e-01 -2.23661419e-02 -1.39620285e-02 -6.50218576e-02
  -5.22684418e-02  2.39748862e-02 -9.60704237e-02 -4.28457297e-02
  -2.88322747e-01 -2.21272409e-01 -3.38858724e-01 -5.75974062e-02
  -4.67464738e-02 -6.69503212e-02 -8.59775096e-02  2.99582109e-02
   5.57055697e-03 -1.03410088e-01  3.58335711e-02  3.05101238e-02
  -6.26612455e-02  4.98258024e-02 -5.24546765e-02 -1.67281423e-02
   3.59611399e-03  3.85564752e-02 -2.88110897e-02  2.05573384e-02
  -4.61388491e-02  5.93796484e-02 -1.52058201e-02  2.93186307e-02
  -4.78147008e-02 -3.81007455e-02 -8.05066898e-03  4.21568267e-02
   7.68866912e-02 -5.79170361e-02 -6.10894859e-02 -5.90825081e-02
   5.75231463e-02 -1.31298915e-01 -1.62498851e-04 -1.24531798e-01
  -4.48210649e-02  1.25311717e-01 -2.50353254e-02 -8.06706317e-04
  -4.60563153e-02  3.60287540e-02 -2.13266797e-02  1.04989847e-02
  -3.63027453e-02  9.05116051e-02 -3.54529656e-02 -7.75801539e-02
   2.85720788e-02 -6.47390261e-03  5.49927577e-02 -6.67639673e-02
   4.54189107e-02 -1.60727844e-01 -2.46848110e-02 -1.08986646e-02
  -7.97297154e-03 -2.28871610e-02  3.21229696e-02 -5.90619296e-02
  -8.13915730e-02 -3.85185331e-02 -7.26104602e-02  7.78990090e-02
  -4.14298382e-03 -3.46115492e-02 -4.60028276e-02 -2.08089352e-02
   9.58260056e-03  1.35482669e-01  5.11591285e-02  3.22572961e-02
  -2.69406792e-02 -7.33042955e-02 -9.29603539e-03 -3.25009972e-02
  -2.41767198e-01  1.91878453e-02 -1.78319160e-02 -1.21912165e-02
   6.91434070e-02 -1.23338506e-01 -5.85421547e-03 -2.19341628e-02
   1.25246212e-01 -1.04358718e-01  6.19439483e-02 -5.19834198e-02
   5.65084815e-03 -1.41603515e-01 -3.48508209e-02 -6.04937412e-02
  -5.72515167e-02 -7.78197125e-02  9.80592147e-03  4.05890979e-02
  -3.92837869e-03 -1.80373192e-01 -1.00456983e-01 -3.12389825e-02]
 [ 5.56156132e-03 -7.25608766e-02  7.37471506e-02 -2.23466940e-03
  -7.59602860e-02 -5.18508554e-02  4.15829718e-02 -1.34953456e-02
  -1.56676164e-03  5.57814017e-02 -4.74795960e-02  2.41556647e-03
  -5.69267608e-02 -1.50696203e-01 -9.09335539e-02  6.14345893e-02
   1.09021459e-02 -1.03087895e-01 -1.01199538e-01  3.76115218e-02
   5.25388978e-02  9.96339018e-04 -4.58226278e-02 -2.08462868e-02
  -5.64715676e-02  1.44880684e-02  9.45466757e-02  1.77450441e-02
  -2.46579666e-02 -1.69506733e-04 -1.31628066e-01  2.82149017e-02
  -2.76940204e-02 -9.68955085e-02 -4.31708712e-03  1.66994315e-02
   1.29838912e-02  1.59706250e-01  3.47411409e-02 -2.59599704e-02
   2.23855898e-02 -3.66016068e-02  6.39390275e-02 -1.63913503e-01
   3.19568478e-02 -4.67652306e-02 -7.06658214e-02  1.44269699e-02
   2.16812357e-01 -1.60400558e-03  3.15938145e-02 -1.48144457e-02
   7.92863667e-02 -1.45551637e-02 -5.26872650e-02  1.47331029e-01
  -5.76671027e-02  3.20977205e-03 -3.81990150e-02  7.16360882e-02
   1.77336857e-02 -1.22787088e-01 -7.07219020e-02 -2.89865471e-02
   3.11722215e-02 -1.13886222e-02 -6.47372231e-02 -1.01777744e-02
   3.27899829e-02 -2.88350489e-02 -5.13781868e-02  1.05502084e-02
  -2.65286975e-02 -8.40882510e-02  5.62112629e-02 -2.28279624e-02
   2.40113512e-02  2.60881372e-02 -1.80680633e-01 -2.57292956e-01
  -4.32348326e-02 -1.60906333e-02 -1.05601400e-02 -1.40177906e-01
  -1.00995600e-02 -5.37011549e-02  1.62121281e-02  5.62173128e-02
  -2.98821181e-02 -1.63050681e-01  7.54970908e-02 -9.14362669e-02
  -8.32888708e-02 -4.09982242e-02 -1.35599628e-01 -5.19740209e-02
   6.51820749e-02  1.11505151e-01  2.26592273e-01 -4.85749263e-03
  -1.87777299e-02  3.45616005e-02  2.94572636e-02  8.55249316e-02
   1.10991649e-01  3.05139180e-02 -5.94521314e-02 -1.33981779e-01
   6.40260205e-02 -1.12825729e-01 -4.11719596e-03 -7.80528784e-03
  -3.00502721e-02 -3.60932685e-02 -1.11021058e-04  4.91167679e-02
  -8.90644491e-02  9.00267661e-02 -1.51146516e-01  1.15946224e-02
  -1.98355000e-02 -4.58806846e-03 -2.82795224e-02  3.02200280e-02
   8.88078883e-02 -1.41002506e-01  4.99471650e-02 -5.32323122e-03]
 [-1.09265689e-02  2.43385765e-03 -1.11932240e-01  1.72033221e-01
  -6.97093364e-03 -4.69097458e-02  3.69507335e-02 -3.70749868e-02
   1.54330162e-02  3.69701050e-02 -3.39668430e-02  5.14586875e-03
  -5.86748421e-02  1.66490048e-01  2.74593960e-02 -7.30103180e-02
  -1.12922877e-01  6.41317517e-02  3.51164266e-02 -2.69315112e-02
  -9.88036692e-02 -4.80863601e-02  1.17183171e-01  3.44776846e-02
   4.18787189e-02  1.60345361e-02 -6.14388809e-02 -1.07466079e-01
  -7.18836561e-02  6.70717983e-03  1.56888649e-01 -4.86996658e-02
  -2.33261697e-02 -3.94967571e-02 -5.49774021e-02  1.70619711e-01
  -5.79132102e-02  1.12190485e-01  5.10399183e-03 -3.25082429e-02
  -2.97975019e-02 -4.87578521e-03 -3.91203277e-02 -1.11044995e-01
  -5.08019840e-03  4.03292738e-02  1.02332368e-01 -4.98029254e-02
   3.81902456e-02 -5.55033498e-02 -1.55357784e-02  1.49305984e-01
  -1.19054668e-01 -5.20465709e-02  1.13352999e-01  8.78679827e-02
  -3.37614007e-02 -1.05246544e-01 -2.27111205e-02  6.14185538e-03
  -2.53122542e-02 -1.55450953e-02 -1.19112723e-01  9.95767955e-03
  -8.54223371e-02 -1.36690736e-01 -7.28154704e-02  1.50918821e-02
   1.12430658e-03 -1.85674019e-02  3.39469034e-03 -2.26003882e-02
   7.94088393e-02 -6.91559687e-02  2.01382264e-02  1.39188953e-02
  -8.40080455e-02  6.85652345e-03 -1.98127553e-01 -8.74682218e-02
  -9.95864533e-03  8.11416656e-03  6.70064939e-03  2.22698916e-02
  -2.89737377e-02 -1.00796081e-01 -6.01938702e-02  1.58450063e-02
  -6.25910088e-02 -2.56300539e-01  4.87101674e-02 -1.17077231e-02
  -6.99661002e-02 -4.60319445e-02 -5.18405475e-02 -2.25027613e-02
  -6.26956532e-03  7.04064593e-02  1.17849492e-01 -4.99100201e-02
  -8.03081468e-02 -5.41215837e-02  1.22416038e-02  1.01736886e-02
   1.14959687e-01  2.14440469e-02  2.99767833e-02  4.17397469e-02
   5.09121567e-02 -7.05036670e-02  8.53085518e-02 -1.74993910e-02
  -1.77144751e-01  1.96052380e-02  1.22598987e-02 -5.05557992e-02
  -3.14278528e-02  3.37789878e-02 -3.28229778e-02 -2.73876302e-02
   3.92967202e-02 -3.55827273e-03 -1.61690731e-02 -5.80064813e-03
   4.53393050e-02  1.26105785e-01  1.14092961e-01  4.40908875e-03]
 [ 2.36826055e-02  1.40952151e-02  7.80275017e-02 -2.75437608e-02
   1.36340156e-01 -3.31383036e-03  6.81241080e-02  1.06865419e-02
  -2.13008840e-02 -4.75086644e-02  7.88343027e-02 -8.04282129e-02
  -4.79866080e-02 -4.50897142e-02  6.63498491e-02  4.65387441e-02
  -2.49343943e-02 -3.06259058e-02 -1.04047991e-01 -8.65157098e-02
  -9.96783003e-02 -1.95009056e-02 -6.49423450e-02  4.35985886e-02
   3.29919681e-02 -4.21526656e-02 -8.75828192e-02  8.17814097e-03
   3.09587398e-04 -3.12517621e-02  2.36027375e-01 -5.56603000e-02
  -5.75446784e-02  9.50151775e-03 -4.07767147e-02  2.34921761e-02
   3.05003710e-02  1.05830811e-01 -6.55922890e-02  2.11168695e-02
  -5.30963540e-02 -4.98294048e-02  8.79769865e-03 -5.57400994e-02
   3.17418166e-02  9.46327485e-03  2.35961732e-02 -1.29419537e-02
   1.57640651e-01  4.17665988e-02 -2.10261345e-02 -1.47923445e-02
  -7.43007064e-02 -1.44727016e-02 -1.69012561e-01  6.37244731e-02
  -1.59407839e-01  5.97553141e-02 -5.40555790e-02  4.39414270e-02
  -5.49145751e-02  5.42392284e-02  1.14076577e-01 -2.63697561e-02
   7.76983127e-02 -1.55641455e-02 -2.03612517e-03 -5.83569296e-02
  -3.57120261e-02 -4.44333628e-02 -5.63785480e-03  3.54437204e-03
   6.58694878e-02 -1.62431285e-01 -7.87537470e-02 -4.13736627e-02
   1.76612735e-01  4.09077629e-02 -3.21472883e-01  1.97468266e-01
  -1.57956667e-02 -9.79060754e-02  8.46477523e-02  9.10010934e-02
  -7.79561475e-02 -2.54132431e-02 -5.99183142e-04  1.30100027e-02
  -3.69723029e-02 -2.57647084e-03  7.57945478e-02  1.29537731e-01
  -2.73316562e-01  2.10793763e-02 -7.12051764e-02 -4.70116511e-02
  -3.34504433e-02 -1.10989437e-01  1.04168527e-01  2.99278945e-02
   5.03879003e-02 -4.49447110e-02 -5.47784939e-02 -4.83757397e-03
   3.85901183e-02  2.69051045e-02 -9.96481702e-02 -1.65461943e-01
  -1.23651311e-01  3.33106965e-02 -4.52118963e-02 -2.90040299e-02
  -1.53486460e-01  6.94140717e-02 -5.34462556e-02 -5.15256748e-02
  -5.50855957e-02 -8.03961698e-03 -8.01163241e-02  1.59981102e-03
  -1.97940301e-02  1.64987862e-01 -2.60612927e-02 -2.69549992e-02
  -7.43319467e-02 -1.26876459e-01 -8.26498717e-02  2.51144171e-02]
 [-8.03212821e-02  5.07932249e-03 -9.92388055e-02  2.22059190e-01
  -1.48915917e-01  1.53572829e-02 -9.53740999e-02 -5.92330620e-02
  -2.12639440e-02  1.17082763e-02  1.02946656e-02  2.23296341e-02
   3.07031944e-02 -1.23318449e-01 -5.24856001e-02  5.04892878e-02
   1.30902848e-03 -6.68806136e-02  2.34672487e-01  1.72310229e-02
  -1.06651627e-01  1.66707132e-02 -1.25957727e-01  5.62490663e-04
  -1.50382835e-02 -2.13257391e-02 -4.46624821e-03 -9.91924852e-03
  -8.99542123e-02 -1.19921885e-01 -1.08276173e-01 -5.74713424e-02
   8.20331275e-03 -2.54289806e-02 -8.90250504e-03  3.41337137e-02
   1.03592724e-02  4.43473225e-04 -2.55806819e-02 -1.93943232e-02
   1.79505982e-02  3.80100608e-02 -2.87561323e-02 -1.04367077e-01
  -1.40671004e-02  6.99382648e-03  9.01284665e-02 -1.31768599e-01
   1.53873682e-01 -5.10319369e-03 -3.90954874e-02  3.80174555e-02
  -1.26064122e-01  2.63135601e-02  9.27084386e-02 -4.83489446e-02
  -1.80727750e-01 -1.54868346e-02 -3.82307582e-02 -7.91017041e-02
   1.39828801e-01  1.08907204e-02 -5.44878766e-02 -1.69389084e-01
  -1.32843971e-01  5.23184389e-02  6.20789118e-02  1.29941441e-02
  -1.53808333e-02 -4.28166017e-02  2.01194845e-02 -1.11315772e-03
   5.20621873e-02 -5.50874434e-02 -4.14164141e-02 -2.64132284e-02
   7.64230043e-02  2.81510856e-02 -1.24192499e-01 -3.00022122e-02
  -2.16449499e-02 -1.77145824e-01  1.28438279e-01  8.25222582e-02
  -9.76120774e-03  6.78398907e-02  2.27083080e-02 -4.94396910e-02
  -1.97443776e-02  1.28120869e-01 -8.68922289e-05  2.51963824e-01
   4.93343845e-02  9.75521281e-02  1.16478717e-02  2.42255218e-02
  -6.87073125e-03 -1.30091175e-01  3.54610831e-02 -1.48529902e-01
  -4.46341559e-03  6.77080229e-02 -3.73544581e-02  6.69625774e-02
  -7.99146742e-02  1.69884507e-02 -5.21368161e-02  7.08546191e-02
   8.03078339e-02 -1.29644990e-01  1.04180746e-01  1.17309531e-02
  -8.04701224e-02  3.92745771e-02  2.80063655e-02 -2.73672454e-02
   7.03678057e-02 -1.02689415e-01  4.99542430e-02  4.33833860e-02
  -3.37340832e-02 -5.75142466e-02  5.94275482e-02  8.03515501e-03
   2.55232573e-01  1.82594992e-02  1.96026191e-02  2.31223591e-02]
 [-5.97055368e-02 -8.87545571e-02 -2.39522099e-01 -4.53991489e-03
   1.20073454e-02  3.58472317e-02 -3.24284844e-02  3.05834152e-02
   1.45103480e-03 -6.63827062e-02 -1.15538903e-01 -6.86138943e-02
  -5.62585331e-02 -5.37608042e-02  3.00034229e-02 -6.15283512e-02
   7.85913132e-03 -7.64835905e-03 -1.36954701e-02 -3.07651609e-02
   4.96961586e-02 -7.00991005e-02  2.21584830e-02  1.76936649e-02
  -6.13658540e-02  7.53739965e-04  8.90394226e-02 -4.41582426e-02
   3.57248560e-02  4.42850180e-02  2.89775394e-02 -6.13400042e-02
  -6.42709956e-02 -6.26958013e-02  2.19426770e-02  5.88638335e-03
  -6.04628585e-02  7.12708011e-02 -2.77509671e-02  3.15118618e-02
  -6.41678125e-02  1.69844851e-02 -2.05808952e-02  1.11772930e-02
   4.43703271e-02  6.54236926e-03  4.76403497e-02 -1.05452975e-02
  -5.71704796e-03 -2.20943037e-02 -2.21141055e-02  2.48279925e-02
   3.41229737e-02  1.04039004e-02 -3.24839838e-02 -3.27684358e-02
   5.73928691e-02  4.35491093e-02 -5.93962446e-02  4.80865967e-03
   3.89805175e-02 -2.38050781e-02 -7.41335824e-02 -4.00443636e-02
  -1.47950230e-02  2.17907112e-02 -3.39774182e-03 -3.05693746e-02
   2.84591634e-02 -4.23458871e-03 -6.29522353e-02 -2.61860546e-02
   4.06317525e-02  4.67674658e-02  5.23854373e-03  5.54809766e-03
  -6.11490309e-02 -1.16369361e-02  3.77466865e-02 -1.26731917e-01
  -3.27547044e-02  6.28092661e-02 -7.00247064e-02 -5.65656181e-03
  -1.64020639e-02 -1.82643197e-02  4.94446382e-02 -5.80234937e-02
   1.93370394e-02  4.56423685e-02  1.94346141e-02  2.04300582e-02
   5.29254181e-03  1.67135000e-02  4.63265590e-02  3.80233414e-02
   2.58995034e-02 -2.62590982e-02  3.21690813e-02 -7.73736015e-02
  -1.18968107e-01  8.28618766e-04 -4.99579273e-02 -8.92393589e-02
  -1.38711343e-02 -1.78144465e-03 -1.19177051e-01  1.40028298e-02
  -6.44191578e-02  5.41473478e-02 -5.63394539e-02 -3.15778889e-02
   7.28487447e-02 -1.82526395e-01  1.36790918e-02  9.95911378e-03
   5.54547906e-02 -8.96642283e-02  6.01682160e-03 -5.73113076e-02
  -6.43572435e-02  1.97892915e-02 -2.68994235e-02 -6.69754073e-02
   5.81018701e-02  1.74604282e-02 -4.22050105e-03 -6.41281977e-02]
 [-2.99416762e-02 -8.48460123e-02  1.62218735e-02 -2.32895598e-01
  -7.46531188e-02 -4.19848114e-02 -5.36694489e-02 -2.22837701e-02
   4.38220091e-02  3.39734890e-02 -5.65905608e-02 -4.53427136e-02
  -6.02284968e-02 -2.31376700e-02 -4.89243492e-02 -3.56104635e-02
  -5.33123799e-02  1.04377810e-02  1.55761868e-01 -1.05122421e-02
  -1.92656424e-02 -3.41893011e-03 -2.62936521e-02 -5.51057234e-02
   4.09024432e-02  3.11517455e-02 -9.19899717e-02 -9.02433470e-02
  -1.89962804e-01 -6.21021874e-02 -3.14344853e-01 -7.44276568e-02
  -7.13041052e-03 -8.93654004e-02 -9.60285291e-02 -2.16534995e-02
   5.18239327e-02 -3.79039198e-02 -3.93957272e-02  6.41025417e-03
  -5.39131574e-02  4.78520691e-02 -5.27704135e-02 -8.02664980e-02
  -1.48399724e-02 -2.69754510e-02 -1.88218651e-03  7.09254295e-02
  -1.67334899e-02 -5.70941977e-02 -1.51594460e-03 -5.73960990e-02
  -1.49426386e-01 -2.34847069e-02  6.12524450e-02 -4.50552179e-04
  -5.69871701e-02  7.44379535e-02 -2.73039378e-02 -2.56503467e-02
  -2.92568095e-03 -5.98014258e-02 -3.64628769e-02 -6.77769780e-02
  -5.44426888e-02  5.07406332e-02  2.85674855e-02 -6.57976419e-02
   7.60582834e-03 -1.46543030e-02  1.77772474e-02  1.94250010e-02
  -2.18824893e-01  2.93187220e-02  3.63489576e-02  1.04947183e-02
  -5.28524630e-02 -1.05564846e-02 -1.26676783e-01 -3.55379619e-02
  -4.89547588e-02 -6.65386394e-03 -1.69229712e-02 -3.14069875e-02
   2.02707276e-02  3.87105197e-02  2.61854120e-02  1.57896560e-02
  -5.32602221e-02 -9.86018330e-02  1.66869350e-03  2.91439751e-03
   6.78349137e-02 -1.39027074e-01 -1.06714843e-02 -7.89387804e-03
  -4.14862856e-02  5.98098412e-02 -9.94488969e-02  1.19580505e-02
   2.53412295e-02  7.66841322e-02 -2.66904682e-02 -9.29854512e-02
  -2.02135488e-01 -4.61136363e-02 -7.97530562e-02  8.92162994e-02
  -2.29605418e-02 -1.30141556e-01 -7.83654153e-02  3.55579667e-02
   1.39413357e-01 -3.53748016e-02 -3.30443531e-02  8.08201265e-03
  -8.99855942e-02  1.63887721e-02 -7.88856149e-02 -3.73267196e-02
  -5.47622070e-02  6.85452148e-02 -3.27468477e-02  3.11113317e-02
  -1.11890748e-01 -1.12944081e-01 -4.12248075e-02  2.78985761e-02]
 [ 1.19389743e-02 -2.76203211e-02  4.31011021e-02 -1.33264437e-03
  -2.70466153e-02 -2.13825442e-02  2.72921510e-02  3.20049003e-02
  -4.87448312e-02 -2.24423427e-02  1.52479718e-02  7.70467818e-02
  -3.66937742e-03 -1.02141492e-01 -2.97480589e-03 -5.30864410e-02
   5.71162887e-02 -3.01869780e-01 -7.95086324e-02 -1.18754925e-02
   3.11176255e-02  5.48626296e-02 -7.83644896e-03 -1.79780181e-02
  -6.24230169e-02 -7.32714450e-03  1.47035748e-01 -1.41108045e-02
   3.74745503e-02 -1.18031196e-01 -1.32934973e-01  5.34434244e-02
  -2.58475430e-02  1.07402848e-02  4.22123373e-02 -9.49447155e-02
  -1.12745082e-02  1.08110649e-03 -5.65499440e-02  4.25965898e-03
  -5.96851744e-02 -1.69206690e-02  7.40790218e-02 -1.22665800e-01
  -2.42139995e-02  1.76746622e-02 -4.26134542e-02  8.89942721e-02
   1.37515530e-01 -5.22610545e-02  2.90504768e-02 -8.52486491e-03
   1.58978879e-01  5.85700991e-03 -2.19563037e-01  2.91110188e-01
   7.21301511e-02  1.91030994e-01 -5.05120195e-02 -6.26296103e-02
  -8.51659663e-03 -5.27451783e-02  8.72726515e-02  5.52475154e-02
   1.36196926e-01  8.86466503e-02 -4.80544083e-02 -2.47039944e-02
   4.50433558e-03  2.43691634e-02  4.68852706e-02 -7.46197477e-02
  -8.04262012e-02 -4.44072746e-02  2.19556745e-02 -9.66452956e-02
   3.09680421e-02 -6.35733455e-02 -1.16855996e-02 -6.08247817e-02
  -6.87109912e-03 -5.95816262e-02 -3.37238982e-02 -9.03550461e-02
  -1.97405741e-02 -9.33126546e-03 -1.36880605e-02 -2.73854751e-02
  -1.62463717e-03 -1.38739794e-01  6.32657707e-02  2.33583245e-03
  -1.43675655e-01 -2.03787133e-01 -8.24916959e-02 -4.27465700e-02
   8.24625045e-03  7.10676834e-02 -1.40381977e-02 -4.84258495e-02
  -7.70950690e-02  3.82408574e-02 -5.28402515e-02 -3.61336917e-02
  -7.41373375e-02  1.19014122e-02 -1.98633641e-01 -1.15330607e-01
   5.56830466e-02 -1.27964944e-01 -1.14790209e-01 -7.82304630e-02
   5.97607233e-02  4.25583730e-03  4.28358540e-02  2.69773956e-02
  -5.17880656e-02  5.08367643e-02 -2.36080185e-01 -8.10807496e-02
   2.25203112e-02  1.29699185e-01 -6.63043261e-02 -3.36187333e-02
   8.23229700e-02 -1.64563879e-01  4.47776020e-02 -5.91095164e-02]
 [ 9.39064100e-02 -5.46886446e-03 -1.04962885e-01  2.14238375e-01
  -5.28001226e-02  4.51541552e-03 -8.61978456e-02 -4.02013436e-02
   4.17365227e-03  5.25436699e-02 -7.87224993e-02  5.84155023e-02
   5.23495600e-02 -9.34677124e-02 -9.73627269e-02  1.30623695e-03
  -1.43078994e-02  3.71786617e-02  7.89409317e-03  4.80365269e-02
  -3.16566229e-02  2.41753105e-02  2.77779430e-01 -1.81640231e-03
   2.48269234e-02 -1.43033803e-01 -3.60638984e-02  2.52906680e-02
  -9.82233211e-02 -3.71300370e-01  2.12315358e-02  3.24028991e-02
  -7.26979971e-02  2.09073611e-02  1.97041817e-02  5.74358813e-02
  -3.79930921e-02  1.00556403e-01 -2.35988498e-02 -2.07909029e-02
  -5.18826842e-02  7.39499973e-03 -2.75736917e-02 -1.00459315e-01
   1.90948304e-02  7.28191137e-02 -1.81096122e-01  5.86186200e-02
   1.35657564e-01  2.68667694e-02  1.39189139e-02  1.64773285e-01
   6.17573131e-03  2.11027935e-02  4.84625027e-02  3.99552546e-02
  -2.71780249e-02 -1.18215002e-01 -9.81123094e-03 -3.74344774e-02
  -1.46876024e-02  1.35442633e-02  7.43072014e-05  9.40598920e-02
  -3.58653516e-02 -2.03860551e-02  4.82806638e-02 -3.98020186e-02
  -5.34433946e-02 -2.42955908e-02  1.71093810e-02 -3.45358327e-02
   1.16229737e-02 -8.76089409e-02 -2.43858676e-02 -3.25272642e-02
  -6.36161715e-02 -1.18185598e-02 -7.13428557e-02 -3.66699733e-02
  -3.45158316e-02  8.73557702e-02 -5.00794724e-02  6.60517067e-02
   4.64225747e-02 -3.78540754e-02 -2.24655773e-02 -7.34515255e-03
  -3.11900359e-02 -3.24643731e-01 -3.46884131e-02 -7.74910348e-03
  -1.14898637e-01 -2.62557358e-01  2.53896303e-02  4.30168286e-02
   8.95478390e-03  9.00085270e-02 -7.98704010e-03  6.79064244e-02
  -9.05874148e-02  8.67460202e-03  3.55302021e-02 -6.23360798e-02
   4.79794256e-02 -8.30277428e-02 -6.88866749e-02  7.92238340e-02
   3.86691503e-02 -2.16188934e-03  9.60103720e-02 -1.52172139e-02
  -7.07333535e-02  1.65137067e-01  8.17647204e-02 -2.07543513e-03
   2.84699835e-02  3.38852219e-02 -6.15796372e-02 -2.75049210e-02
  -4.11674194e-02 -9.36380997e-02  4.05363105e-02  3.46475430e-02
   1.69037491e-01  2.77149111e-01  3.78163867e-02  5.15499711e-02]
 [-3.22537422e-02 -1.09156361e-02  4.80879545e-02 -2.02813447e-02
   1.10302642e-01  7.89965689e-03  1.17285810e-01 -2.97704488e-02
   3.63904871e-02 -3.07795294e-02 -2.74856742e-02 -6.95981132e-03
   4.98923585e-02 -1.31969318e-01  1.69088412e-03 -3.59748565e-02
   7.07947090e-02 -8.53604153e-02  6.56733736e-02 -1.65875539e-01
  -9.29846093e-02 -2.01536100e-02  2.87445206e-02 -2.37824135e-02
  -3.09903156e-02 -4.56043556e-02 -3.42324027e-04  8.65252838e-02
  -6.54916465e-02 -3.42715047e-02  1.39395624e-01 -4.85468954e-02
  -3.48724425e-03 -2.35052444e-02 -5.18112853e-02  3.55110355e-02
  -1.14511140e-02  1.39060050e-01  1.93296764e-02 -1.31459278e-03
  -3.41336541e-02 -6.81836903e-03 -1.45166829e-01 -4.73167934e-02
   6.27691373e-02  3.05148249e-04 -1.91205721e-02 -1.34900197e-01
   2.82524545e-02 -9.49104130e-03 -9.63505358e-04 -5.06687127e-02
  -2.08148435e-01 -4.51517776e-02 -1.74607560e-01 -5.36576994e-02
  -2.08082467e-01  1.43128484e-02 -5.05056828e-02  1.06818592e-02
   3.87963466e-02  8.28436166e-02  8.89321640e-02  4.96178158e-02
  -3.13915797e-02 -6.61282316e-02 -5.88991493e-02  2.61834934e-02
  -2.25741751e-02  4.37239781e-02 -1.42544729e-03 -6.55508637e-02
   1.27980579e-02 -1.68502241e-01 -8.07869062e-02  1.41846118e-02
   1.70112729e-01 -4.53553051e-02 -3.53647709e-01  7.20837340e-02
  -4.92188819e-02 -7.14870077e-03  4.51256484e-02  1.43121973e-01
   3.93415652e-02 -5.40137254e-02 -3.38347554e-02  4.26196754e-02
   3.18978541e-02 -2.16159746e-01  4.44596745e-02  1.30722880e-01
  -1.68259576e-01  7.97429681e-03 -1.47956297e-01  1.91619825e-02
   7.27373958e-02 -8.78861770e-02  1.78235590e-01 -3.42566893e-02
   7.95322880e-02 -7.31413718e-03  3.45629454e-03 -2.21564304e-02
   6.88119829e-02 -6.93385974e-02 -6.85456842e-02 -8.62213597e-02
  -6.73603714e-02 -1.01816757e-02  3.56785618e-02 -3.19530889e-02
   3.90078574e-02  1.97816610e-01 -1.36427479e-02  2.18084864e-02
   4.05078717e-02  2.76995916e-02 -1.98656440e-01 -4.52022180e-02
  -2.83860369e-03  1.40873328e-01 -3.05243470e-02 -2.51139347e-02
  -1.28532439e-01 -7.62750804e-02 -1.92614105e-02 -1.11863082e-02]
 [ 4.05268781e-02 -1.81936193e-02 -1.47040561e-01 -4.41581607e-02
  -1.31649584e-01  2.02000719e-02  4.58936356e-02  5.03755407e-03
  -1.01960897e-02 -7.07282573e-02  2.90139392e-02 -1.64526363e-03
  -6.26010373e-02 -2.69943923e-02 -1.26936257e-01 -3.91821489e-02
  -1.06667392e-01  1.15500437e-02  1.94042221e-01 -4.58246097e-02
   2.29017287e-01  2.90685203e-02  1.21242307e-01 -3.82963009e-02
   3.16135660e-02  7.50606731e-02  9.95038822e-03  1.89304189e-03
  -2.65082009e-02 -2.55756646e-01 -1.96293429e-01  3.35346982e-02
   3.62401977e-02 -2.14898922e-02 -2.12183371e-02  1.02728873e-01
  -2.72404104e-02  5.34111783e-02 -1.23812901e-02 -3.86516675e-02
   2.59159934e-02  4.99666780e-02 -4.03707139e-02  1.13823265e-01
  -5.73178940e-02 -4.50920798e-02  6.40794113e-02  5.48975579e-02
   7.36912638e-02 -1.04637071e-02  4.83235717e-03  8.28299224e-02
  -1.42537385e-01 -3.49185131e-02  9.71706286e-02  7.73483515e-02
   1.81517959e-01 -3.87228765e-02  2.09246632e-02  1.65965445e-02
  -6.76838607e-02  1.65101811e-01 -5.45593426e-02 -8.86146873e-02
   1.58601686e-01  1.78210009e-02  1.93229578e-02 -7.78125376e-02
   8.05256218e-02 -7.98053574e-03 -4.16301452e-02 -3.53298932e-02
  -1.17476925e-01  1.05982676e-01 -5.18567041e-02 -1.15151510e-01
  -8.70490670e-02  3.92241254e-02 -2.02511474e-01 -4.98377718e-02
  -9.84476507e-03 -1.36025384e-01 -1.44333579e-02  5.37534105e-03
   4.35342360e-03  1.29592404e-01 -1.88824367e-02  3.20993140e-02
  -5.57082035e-02 -1.12721249e-01  7.58001581e-02  9.37212631e-02
   3.39779146e-02 -7.71467760e-02 -1.70761779e-01  3.87870073e-02
   4.07768646e-03 -9.89470631e-02  2.37252116e-02 -8.93586949e-02
  -2.90067475e-02  3.20817009e-02 -4.53779753e-03 -3.22433114e-02
  -1.91117451e-01  4.38577943e-02  7.06090555e-02 -1.68937836e-02
  -3.34824100e-02 -2.39041552e-01  5.59653975e-02 -9.44659300e-03
  -1.34347379e-01 -2.45827828e-02 -1.29656658e-01 -4.49666530e-02
  -3.02051082e-02 -4.64472733e-02  7.64369369e-02 -1.13941923e-01
  -6.64133206e-02  9.34132487e-02 -4.08439226e-02  6.88311085e-02
   1.93866059e-01  4.94153164e-02 -3.24875526e-02 -5.00841141e-02]
 [-1.04781643e-01  8.52998346e-03 -2.15219632e-01 -8.66900608e-02
   8.87639634e-03  9.79989674e-03 -8.00139010e-02 -5.71678281e-02
   1.05347317e-02 -2.29503252e-02 -1.89654361e-02 -1.09221842e-02
   3.32693495e-02  7.41034225e-02  5.84409945e-03 -2.19280366e-02
  -4.16751904e-03  9.11440924e-02 -2.90145520e-02 -6.42408282e-02
   4.23776880e-02 -7.29145855e-02  4.23041806e-02 -4.77082916e-02
  -3.23174708e-03 -3.35262232e-02 -3.05931605e-02 -7.13949502e-02
   4.75708619e-02  7.80912191e-02  6.08724430e-02 -1.45295961e-02
  -6.20599687e-02  5.09568453e-02  3.70898359e-02  5.65968566e-02
  -2.68729236e-02  6.06707856e-02 -5.99605925e-02  1.31703753e-04
  -1.64204650e-02  1.44131724e-02 -8.02678838e-02  2.95033236e-03
  -8.27224851e-02  1.78034999e-03 -1.25867678e-02  2.96101049e-02
  -3.05706486e-02  3.87139320e-02 -3.10919918e-02  7.63354003e-02
   5.81949949e-02 -4.52235639e-02  7.69501133e-03 -6.27215579e-03
   5.96956946e-02 -4.17277478e-02 -4.45633866e-02 -5.89791387e-02
  -6.07628282e-03  2.80136205e-02 -3.95823643e-02  3.24702747e-02
  -1.41514186e-02 -2.80451104e-02  1.08769182e-02  2.70812307e-03
  -2.91823875e-02 -4.54830006e-04 -6.65278956e-02 -2.96865217e-02
   4.00421396e-03  6.55088201e-02  3.57519165e-02 -4.81189676e-02
  -5.87369800e-02  2.17349343e-02 -5.37153184e-02 -4.31704707e-02
  -5.88372573e-02  7.37029538e-02  2.08318979e-02 -8.07190463e-02
  -1.85846705e-02 -1.67374425e-02 -6.20662086e-02  1.17794834e-02
  -5.29264361e-02  1.53295286e-02 -2.18032617e-02 -3.73736247e-02
  -1.06281834e-02  3.46436314e-02  6.21030554e-02 -1.72717813e-02
  -4.36421968e-02 -2.75997911e-02  1.02492087e-01 -7.32022896e-02
  -1.10986732e-01 -6.14827722e-02 -2.68886182e-02  2.30768993e-02
  -4.08661962e-02 -4.18819441e-03 -8.55117664e-02  6.45651892e-02
   2.24273074e-02 -2.66257375e-02 -7.30357021e-02 -1.12328483e-02
  -4.10116613e-02 -9.94198993e-02 -2.67041251e-02 -6.14385493e-02
   2.82393415e-02  2.87151933e-02 -5.55802509e-02  1.10609243e-02
   3.98533307e-02 -2.20108237e-02  2.38521826e-02 -1.96350776e-02
  -6.44481694e-03  1.84181344e-03  1.26327612e-02 -1.86011679e-02]
 [ 3.95663409e-03 -3.25764529e-02 -1.18725382e-01 -2.45245054e-01
   3.81652638e-02 -1.41830742e-03  5.06474636e-02 -1.34025272e-02
  -1.09078763e-02 -3.41418087e-02 -2.83509847e-02  3.38548720e-02
   5.20743662e-03 -1.86397120e-01 -7.43461251e-02 -7.46269599e-02
   3.96861369e-03 -1.17398304e-04  1.33052543e-01  1.27525210e-01
  -9.17621106e-02 -3.92452516e-02  3.03224828e-02  1.33328047e-02
   4.44367230e-02 -9.69528034e-02 -1.12190753e-01 -1.57903910e-01
  -2.07661614e-01 -4.34303582e-02 -2.48835772e-01 -8.27367138e-03
   1.58321261e-02 -4.42233793e-02 -6.02911152e-02 -6.38881326e-02
   1.24613224e-02 -8.34384188e-02  3.25406832e-03 -4.20745462e-02
   6.75131707e-03 -9.73373372e-03 -2.16831639e-02 -9.90060419e-02
   9.66998516e-04 -1.45816449e-02  2.49029100e-02  2.92509142e-02
  -6.69430718e-02  3.03634759e-02 -3.32693793e-02 -1.50782064e-01
  -1.42733350e-01 -3.70332180e-03 -1.17771752e-01 -1.39411669e-02
   1.20737240e-01 -8.23397469e-03  2.68983003e-03 -3.45909968e-02
   1.96256623e-01  7.70123005e-02 -1.03681341e-01 -4.63476367e-02
  -1.16640367e-01  4.51112799e-02 -4.34410162e-02 -9.18770395e-03
   5.25166455e-04 -4.99496087e-02 -7.78355636e-03 -2.36150119e-02
  -7.12713227e-02 -4.19907421e-02  2.68838219e-02 -4.77907620e-02
  -6.83304593e-02  2.63993908e-02 -6.04799986e-02 -7.16080796e-03
   8.85649025e-03 -1.30809918e-01 -8.47255718e-03 -1.30298838e-01
  -4.87877540e-02 -9.22955852e-03 -4.85222525e-04 -2.26861406e-02
  -7.68874958e-02 -1.90420732e-01 -8.43534768e-02  2.79583279e-02
   3.17284800e-02 -3.88468355e-02 -7.45729133e-02 -1.73881352e-02
  -5.08558676e-02  6.62704855e-02  8.03655013e-02  3.75493653e-02
   3.53719257e-02  2.61101387e-02 -7.84199536e-02 -5.28799556e-02
  -2.61927664e-01  4.76727448e-02 -5.46565987e-02 -1.00776412e-01
  -9.63799208e-02 -1.33510187e-01 -1.56201404e-02 -3.79350182e-04
   1.13354780e-01 -6.41330779e-02  3.35122198e-02 -6.15198277e-02
  -8.69986042e-02  1.38286231e-02 -5.04136607e-02  4.13358100e-02
   9.78247356e-03  6.30473660e-04 -7.34997690e-02 -1.66582782e-02
  -1.05638588e-02 -7.86944181e-02  1.06166685e-02 -2.55629010e-02]
 [ 7.36478493e-02 -2.00256165e-02  3.78547870e-02  1.20793961e-01
   8.73302892e-02  2.31767707e-02  7.94899464e-02  1.56243239e-02
   5.47235943e-02 -5.32909781e-02 -7.97185153e-02 -5.98420836e-02
   2.78282235e-03 -2.32535938e-04 -1.79716833e-02  6.62736520e-02
  -5.10656200e-02 -1.13286069e-02 -1.37767708e-02 -7.34836911e-04
  -1.80104002e-01  1.64816994e-02 -8.72429367e-03 -6.51488081e-02
  -3.93051244e-02 -5.70189692e-02  1.24168351e-01 -9.12819896e-03
   4.58669588e-02 -9.14617404e-02 -1.06287427e-01  3.59746143e-02
   6.04715198e-03 -8.53352770e-02 -1.49258319e-02  1.67976860e-02
   1.76062156e-02  1.18169952e-02  9.53133131e-05  4.88918871e-02
  -2.24431371e-03 -1.15612336e-02  5.99876866e-02 -2.69244891e-03
  -4.61216755e-02 -2.10967511e-02  4.20742035e-02 -1.06583815e-02
  -2.08920389e-02  3.86923999e-02 -4.35364321e-02  1.52143821e-01
   7.31153861e-02 -3.65612507e-02 -1.68671057e-01  2.61764050e-01
   9.22065079e-02 -1.21633541e-02 -1.94438244e-03 -6.75909743e-02
   4.23864722e-02 -7.98264425e-03 -1.42642471e-03  6.61596656e-02
   1.11920640e-01  1.71589822e-01 -3.67867053e-02  2.08169501e-02
  -2.59938389e-02  2.63738409e-02  1.58384461e-02 -2.13303342e-02
   4.14867140e-02 -1.23822719e-01  5.01011163e-02 -2.14229319e-02
   7.96349719e-02 -2.10238881e-02  1.06174074e-01 -1.65001616e-01
   3.14240786e-03 -6.73924610e-02  1.08091995e-01 -3.86213772e-02
  -2.83697657e-02 -4.92852665e-02 -5.87222613e-02  5.31439632e-02
  -1.50543237e-02 -1.45487636e-01  9.88068711e-03  8.30110908e-02
  -1.12484895e-01 -1.97078094e-01 -9.07756388e-02 -4.77512516e-02
  -7.99164623e-02  1.15507320e-01 -4.39582244e-02 -2.39920672e-02
  -4.55774441e-02 -7.26697072e-02  4.74552857e-03  4.56773490e-02
  -2.02692479e-01 -9.34732426e-03  1.30608613e-02 -3.44619788e-02
   7.95518532e-02 -8.90615359e-02 -1.47049859e-01 -4.56433520e-02
   6.80155009e-02 -8.34167656e-03 -1.90089233e-02  2.29128413e-02
  -1.84153691e-02  3.44641469e-02 -1.05137751e-01  1.63875390e-02
   3.24184150e-02  1.24243602e-01 -1.33922128e-02  4.61325869e-02
   2.11257398e-01 -2.16065645e-02 -1.06337942e-01  1.57651361e-02]
 [-5.79690840e-03 -2.57215761e-02  9.35779046e-03  2.08030239e-01
  -2.04870687e-03  1.56842184e-03 -9.37578082e-02  3.73443700e-02
   2.25689597e-02  1.69437807e-02 -4.19497713e-02  7.40913162e-03
  -1.82907507e-02 -1.73021600e-01  1.12098204e-02 -2.58916430e-02
   3.45271379e-02  4.36156690e-02  4.33054455e-02 -2.42341638e-01
  -2.13136356e-02 -7.41144642e-03  9.60154086e-02  5.36201429e-03
   1.70364114e-03  3.71367298e-03 -1.56111971e-01 -2.15733536e-02
  -3.65923308e-02 -2.52483517e-01  1.25296131e-01 -1.47817926e-02
   6.00156710e-02 -4.74857278e-02 -2.27143317e-02  1.07469782e-01
  -6.10712245e-02  9.22107920e-02  3.63332443e-02  5.29757813e-02
   2.13623210e-03  3.66594619e-03 -1.36057824e-01 -4.02261838e-02
   3.88849042e-02  3.66743393e-02 -8.91999062e-03 -6.05077446e-02
   5.96031919e-02 -4.16045710e-02  4.37857360e-02  4.55386005e-03
  -3.30047868e-02 -5.35534974e-03  4.85606492e-02  6.25419319e-02
   2.71324767e-03 -9.54473168e-02  3.73893231e-02 -8.61990377e-02
  -1.79440137e-02 -1.54816331e-02 -1.84190366e-02  6.39176965e-02
  -1.71480194e-01 -1.00064978e-01 -5.60599901e-02  2.41953824e-02
   1.00547094e-02  1.18027197e-03 -3.69602516e-02 -6.48394786e-03
  -1.23537704e-02 -2.39817379e-03 -6.66736290e-02 -6.43240362e-02
  -4.02961671e-02 -1.13728726e-02 -1.23343073e-01 -9.45291482e-03
  -3.16644497e-02 -1.08723968e-01 -9.00949016e-02  1.35647580e-01
  -5.57830967e-02 -7.95633346e-02 -4.96544056e-02  2.55261678e-02
  -6.09546853e-03 -1.34658530e-01 -7.92012513e-02  1.42764315e-01
  -2.84082796e-02 -2.83245504e-01  4.00578603e-02 -3.36212926e-02
   2.06147470e-02  1.95822138e-02 -3.07951607e-02 -1.50631815e-02
   3.71582508e-02 -3.65251079e-02 -1.21764541e-02 -2.36350689e-02
   4.10087593e-02 -5.17757684e-02  1.95397083e-02 -8.04495905e-03
   8.07431266e-02 -9.11591873e-02 -7.41193593e-02 -8.60222522e-03
  -1.31998554e-01  1.14290439e-01  1.01331711e-01 -3.98445055e-02
   4.40604836e-02 -6.10362068e-02 -1.51161656e-01  1.75726344e-03
  -7.27137737e-03 -1.58897817e-01 -7.10991248e-02  1.46753062e-02
   1.05069816e-01  8.34011808e-02 -1.40792439e-02 -2.60955933e-03]
 [ 9.42759588e-02 -3.97450216e-02  4.33997922e-02 -1.39255047e-01
   1.20314859e-01 -9.16785188e-03  1.03002183e-01  9.49464645e-03
   2.52789129e-02  3.06376885e-03 -3.32736485e-02 -9.39291865e-02
  -5.10100871e-02 -4.13742363e-02 -3.55871283e-02  3.31297219e-02
   3.99417803e-02 -1.31594473e-02  6.74526766e-02 -1.64843854e-02
  -8.74368940e-03  5.68083189e-02 -5.78027852e-02 -2.22099386e-02
   9.60609596e-03 -4.98372726e-02 -1.13265812e-01 -1.45079270e-02
  -3.32727982e-03 -7.63856545e-02  1.86958268e-01 -5.20008579e-02
   1.77424401e-02  2.06037406e-02  6.36186525e-02  4.68449444e-02
  -3.96442541e-04  1.39558688e-01  2.25824025e-02  5.67255216e-03
  -1.90704726e-02 -2.39349194e-02 -8.52146819e-02 -5.67818359e-02
  -1.80519279e-02 -5.83634190e-02  6.08320385e-02  6.89770058e-02
   1.42153814e-01  1.60965230e-02 -5.33475168e-02 -1.30300999e-01
  -1.31106749e-01  1.54667569e-03 -1.93757806e-02 -5.01981452e-02
  -4.18266952e-02 -5.95263317e-02  2.52418425e-02  1.06394934e-02
   4.51029651e-02  2.61257559e-01  6.03156723e-02 -5.69641069e-02
   6.87150583e-02 -6.39525726e-02 -5.64791262e-02  2.23951377e-02
  -1.61638781e-02 -3.80591825e-02  3.55275199e-02  2.24103034e-03
  -5.28831966e-02 -1.74214125e-01 -1.26400674e-02 -1.02769360e-02
  -2.11969148e-02 -5.42139672e-02 -3.39940965e-01  1.22256599e-01
   2.81904116e-02 -1.68132842e-01  6.37682155e-02  1.22416671e-02
  -7.58879781e-02 -5.97171374e-02  2.85375360e-02  1.26531906e-02
  -2.90751979e-02 -6.51578531e-02  6.63931742e-02  1.20382354e-01
  -1.61748305e-01 -3.25053837e-03 -2.44000241e-01  3.89188230e-02
   4.23572175e-02 -2.61721522e-01  1.57835662e-01 -6.75496235e-02
  -3.54773179e-02 -1.54148946e-02 -2.30008475e-02 -2.14004628e-02
   3.51813197e-01  3.27526368e-02 -1.54752731e-02 -8.68505090e-02
   6.11896813e-02 -7.88632557e-02  1.35344669e-01  8.25826824e-03
  -2.31957473e-02  8.28327313e-02 -8.66874605e-02 -3.77928913e-02
  -2.79225130e-02 -6.46143481e-02 -1.98857695e-01  3.89586836e-02
  -4.59335819e-02  1.31784335e-01  1.76839884e-02  2.67111827e-02
  -1.13729730e-01 -1.52751878e-01 -1.44098047e-02  4.48631234e-02]
 [ 6.30877763e-02 -9.00346115e-02 -1.90891474e-02  1.74332410e-02
  -5.93017675e-02  3.46732065e-02  3.75290476e-02 -1.79321952e-02
   2.87209842e-02  5.08012734e-02 -5.67966104e-02  2.80632731e-02
  -3.29197571e-02 -6.92810565e-02 -2.23246776e-03  1.25196809e-02
  -3.23229060e-02 -1.43060917e-02  6.56555593e-02  5.58057055e-02
   2.25558765e-02  7.33609647e-02 -4.59760167e-02 -1.91298537e-02
   1.05633279e-02 -2.22918112e-02 -1.92266796e-02 -7.06580654e-02
  -6.82936460e-02 -1.14340045e-01 -2.07230344e-01  4.29044068e-02
  -1.14962040e-02 -6.48364425e-02 -8.99583623e-02  5.93582578e-02
  -4.19579931e-02 -5.58140315e-02 -5.47159873e-02  6.09317161e-02
  -7.08957389e-02 -1.64142530e-03 -9.53562409e-02 -2.64868677e-01
  -4.96083349e-02  3.60242240e-02 -1.12273410e-01  2.07547188e-01
   1.17639042e-01  3.31770964e-02 -3.74698602e-02  3.34271193e-02
   9.09161568e-02 -2.15713549e-02  7.18059298e-03 -1.78330783e-02
   3.14121395e-02  2.99323425e-02  2.06446014e-02 -2.99698617e-02
   6.32400066e-02  2.09293198e-02 -3.02108936e-02 -6.66908249e-02
   1.77100509e-01  1.59648880e-01  3.48088779e-02 -3.21640559e-02
   1.70115139e-02 -3.68180163e-02  3.89188975e-02 -7.07247332e-02
  -1.19650602e-01  2.25882959e-02 -4.52445336e-02  1.91578381e-02
  -7.41313770e-02 -1.67393312e-02 -2.66748875e-01  6.48323819e-02
  -6.07218370e-02 -2.73948580e-01  1.15251541e-02 -2.71560680e-02
   4.48751338e-02  4.31619808e-02  3.75656933e-02 -4.99467552e-02
   4.66977693e-02 -1.64699510e-01  5.49698211e-02  4.56153788e-02
  -1.38330445e-01 -9.17950049e-02  3.68789621e-02  5.28198667e-02
  -6.62396327e-02  5.13069890e-02  1.10037267e-01 -1.61806777e-01
  -3.90450191e-03  4.45492845e-03 -3.47405933e-02  2.11801305e-02
  -3.19719501e-02  2.05225553e-02 -7.13485256e-02  3.36726643e-02
  -1.92791358e-01  5.09775728e-02 -2.64626648e-02 -5.38045317e-02
  -8.31117332e-02 -9.60391946e-03  1.21027216e-01 -5.91085404e-02
   2.03333818e-03 -2.59126630e-02  8.70146230e-03 -2.78353821e-02
   3.85630243e-02  5.12069501e-02  4.17456180e-02  5.04641160e-02
   6.57021627e-02  4.45635617e-02  9.94607583e-02 -1.44710205e-02]
 [-8.34862366e-02 -1.32009955e-02 -1.48292080e-01 -8.22616890e-02
   2.22470462e-02 -2.52630040e-02 -6.80845976e-02 -6.35707825e-02
  -3.98072712e-02 -4.21060715e-03 -5.07766120e-02 -6.73413426e-02
  -4.78126146e-02  2.46899538e-02  2.69951532e-03  9.30210692e-04
  -6.50108382e-02  5.16053326e-02 -1.08097754e-01  1.30592704e-01
  -1.51113980e-03 -1.78031959e-02  5.55881932e-02 -3.83079499e-02
   3.96240465e-02  6.52771071e-03 -7.54509345e-02 -1.24439076e-02
  -2.98579596e-02  3.13554890e-02  4.94321883e-02 -2.83015389e-02
  -4.98000998e-03  9.08224192e-03  4.92707305e-02  9.44456644e-03
   1.73540525e-02  2.05040979e-03  3.11391726e-02 -2.25604745e-03
   2.99814902e-02 -2.70245969e-02 -1.55432343e-01  3.94796999e-03
   2.83690169e-02  1.55688124e-02 -4.64233980e-02 -2.17733048e-02
  -5.12790680e-02 -4.34021056e-02 -1.87455136e-02  4.97245118e-02
   8.35597888e-02 -2.14040671e-02  3.17662396e-02 -4.71081287e-02
   4.12187167e-02  4.50010970e-02 -1.98783223e-02 -9.48267281e-02
  -5.23679424e-03  2.92163715e-03 -5.59738197e-04 -2.35576350e-02
   2.98456904e-02 -1.19838025e-02 -7.89858624e-02 -3.59517382e-03
   5.19471727e-02 -5.45015745e-02  2.23451275e-02  6.64117467e-03
   7.57018328e-02 -1.75242666e-02 -4.77091596e-02 -5.08332364e-02
  -9.88604501e-02  1.20877456e-02  1.62516441e-03  4.21814322e-02
  -6.93084374e-02  4.78940867e-02 -6.86778724e-02 -1.26033604e-01
  -6.83376417e-02 -2.95012407e-02 -2.25909185e-02  3.02883256e-02
  -1.47262737e-02  2.55750474e-02 -2.67556310e-03  1.87748310e-03
  -1.77616440e-02  4.93969619e-02  3.60111776e-03 -5.89311384e-02
  -4.84336838e-02 -3.25371362e-02 -2.40675807e-02 -3.38463373e-02
  -9.65328217e-02 -3.80188487e-02 -3.57523514e-03  7.29523087e-03
  -3.05312816e-02 -3.89839299e-02 -1.03553250e-01  1.54889170e-02
   2.30765902e-02  1.22260839e-01  4.92854929e-03 -3.54950479e-03
  -9.49781213e-04 -4.02022004e-02 -2.23616865e-02 -7.12696314e-02
  -1.94116868e-02 -3.15272808e-02 -1.02912523e-02 -4.94772270e-02
   1.02819987e-02  4.04229872e-02  3.33313607e-02 -3.75812463e-02
  -3.66601464e-03 -3.29841897e-02  3.44459452e-02 -3.64585742e-02]
 [-1.80248842e-02 -2.88267005e-02 -3.65844294e-02 -3.64147335e-01
  -1.80655614e-01 -1.21508213e-03 -5.31656630e-02  8.41269456e-03
   1.21674547e-02 -2.63019744e-02 -5.36594260e-03  1.64749008e-02
  -1.09904576e-02 -6.64579123e-02 -5.22070974e-02 -4.74640355e-02
  -1.85645290e-03 -1.38636436e-02  4.44633476e-02  1.10732317e-01
   1.95486024e-02 -7.93778803e-03 -1.05385445e-02 -1.84010975e-02
  -3.51625844e-03 -3.85225937e-02 -1.94642067e-01 -2.43322793e-02
  -1.28348008e-01  4.47861440e-02 -1.40560269e-01 -5.92249408e-02
  -3.06769796e-02 -9.59612895e-03  1.36399483e-02 -4.16693091e-02
  -1.01049421e-02 -2.61259884e-01  3.95104475e-02  5.40809035e-02
  -4.00257520e-02  5.08828722e-02  2.67771967e-02 -5.94764762e-02
  -2.03117952e-02 -4.63505648e-02 -4.87549156e-02 -2.22920012e-02
  -1.08023763e-01 -4.06777486e-02 -5.59564419e-02 -7.37441778e-02
  -8.06229115e-02 -5.73489144e-02  1.19994253e-01 -4.73457575e-02
  -1.75919697e-01 -6.40719011e-02 -5.60683087e-02  1.91569161e-02
  -8.47329050e-02 -1.09993175e-01  2.69771405e-02  3.86352725e-02
  -8.51176307e-03  7.43298531e-02  4.87887934e-02  3.67873982e-02
   2.64715124e-02 -3.25269029e-02  1.79244131e-02  1.80716366e-02
  -6.94294199e-02  1.68422848e-01 -5.76383621e-03 -7.46021196e-02
  -7.53528345e-03 -4.40742522e-02 -4.74496484e-02  6.89375866e-03
  -4.58482392e-02  4.56085578e-02 -5.07775955e-02 -2.99003366e-02
   2.27748714e-02  1.91461183e-02 -8.80727079e-03 -1.04234982e-02
  -7.41087571e-02 -1.98382884e-01 -3.46468166e-02  1.24923764e-02
   6.42420608e-04  1.33048585e-02  9.40771028e-02  7.84466334e-04
   4.80805822e-02  2.67547630e-02  3.05458568e-02 -1.02207884e-02
  -1.50519200e-02  2.39450689e-02 -5.47751132e-03  2.46560061e-03
  -1.72525838e-01  1.08938096e-02  8.28663725e-03  8.35992247e-02
   8.09724927e-02 -5.75424470e-02 -2.06873100e-02 -2.49794722e-02
   1.04103133e-01 -1.01989247e-01  1.56498879e-01 -4.29522023e-02
  -4.80553806e-02 -1.04828157e-01 -2.18634699e-02  4.59471121e-02
   4.85576391e-02 -1.18440501e-01  1.26042226e-02 -3.75621729e-02
  -8.43767263e-03 -9.96368304e-02  1.44159898e-01 -4.30394858e-02]
 [ 2.91123632e-02 -9.40714311e-03  2.40049902e-02  2.52512973e-02
   8.53209347e-02 -9.80812591e-03  2.48079430e-02  5.51619604e-02
  -6.45973831e-02  2.85241753e-03 -9.74026695e-02  1.32315652e-02
  -2.40914188e-02  7.43043143e-03  9.33834538e-02 -6.13803929e-03
  -9.66010895e-03 -9.51098204e-02  4.69241943e-03  9.63046551e-02
   2.93142884e-03 -2.00312212e-03 -2.41420567e-02  5.41350245e-02
  -4.77565965e-03 -1.83157884e-02  1.16134606e-01  4.44277078e-02
   5.65285310e-02 -7.49775171e-02 -6.89473674e-02 -4.60385755e-02
  -5.49724028e-02 -8.56869519e-02  5.05138705e-05  5.57090447e-04
   3.71628255e-02  9.89167765e-02  4.92187478e-02  6.48573693e-03
   6.81409473e-03 -9.74238664e-03  1.11381739e-01  8.77634212e-02
  -7.06074238e-02 -1.93803292e-02  1.12152904e-01 -3.00315004e-02
